<?xml version="1.0"?>
<opencv_storage>
<opencv_ml_svm>
  <format>3</format>
  <svmType>C_SVC</svmType>
  <kernel>
    <type>LINEAR</type></kernel>
  <C>1.</C>
  <term_criteria><iterations>100</iterations></term_criteria>
  <var_count>900</var_count>
  <class_count>2</class_count>
  <class_labels type_id="opencv-matrix">
    <rows>2</rows>
    <cols>1</cols>
    <dt>i</dt>
    <data>
      -1082130432 1065353216</data></class_labels>
  <sv_total>1</sv_total>
  <support_vectors>
    <_>
      4.08148915e-02 -8.15766975e-02 7.01028779e-02 2.22099777e-02
      1.04338698e-01 -2.36954205e-02 2.23124847e-01 1.33864164e-01
      2.05834270e-01 -9.72049683e-02 -2.19575942e-01 3.20662116e-03
      -3.23250219e-02 -9.40145925e-02 -3.47377919e-02 9.24424008e-02
      -1.10111542e-01 -7.47460872e-02 9.34793130e-02 -1.22519009e-01
      -1.70434996e-01 -6.09986261e-02 -1.73362624e-02 -1.37657866e-01
      9.01183188e-02 3.33031975e-02 1.43969551e-01 -8.22099447e-02
      -2.10948378e-01 -9.82638448e-02 -2.21161216e-01 -1.42988160e-01
      -2.24196330e-01 9.43228155e-02 3.78768593e-02 8.26014280e-02
      1.09940901e-01 -1.16865411e-01 3.69093940e-02 -6.22146279e-02
      -8.53405818e-02 1.17745981e-01 2.64995188e-01 1.07034355e-01
      5.40781952e-02 2.09449101e-02 -1.39489561e-01 -1.92014530e-01
      -1.40009940e-01 -1.96182311e-01 -1.85826689e-01 -3.07273399e-02
      -7.12651536e-02 6.58107996e-02 8.84025916e-02 -1.71755385e-02
      1.69697925e-01 1.30111486e-01 1.14264406e-01 -1.30814448e-01
      1.40559077e-01 1.67869404e-02 1.18764609e-01 -2.99635120e-02
      -1.77608669e-01 2.61665378e-02 3.59993838e-02 2.71221921e-02
      -2.77604878e-01 -7.66419023e-02 -2.12551817e-01 -1.82190344e-01
      1.47143006e-01 -6.29298985e-02 -3.97646520e-03 4.40367647e-02
      -5.18700331e-02 -1.14115156e-01 1.88456792e-02 -9.04082358e-02
      1.50077894e-01 1.90571457e-01 -1.94010317e-01 -9.24340189e-02
      -1.54572234e-01 -2.01777101e-01 -1.24733843e-01 -4.66647744e-02
      -1.93453774e-01 4.88483086e-02 -7.57890791e-02 -4.68855314e-02
      5.37849180e-02 7.38368602e-03 1.93277448e-02 7.57815875e-03
      1.13492250e-01 -6.42223135e-02 -5.88794127e-02 -4.25782520e-03
      -7.67989755e-02 1.87416060e-03 -1.05910115e-01 -1.66691676e-01
      -1.90729834e-03 -2.00731531e-02 -9.59562734e-02 -1.61242019e-02
      6.90579461e-03 -2.43544996e-01 -1.49287656e-01 -2.81116396e-01
      -2.16058746e-01 -1.50869399e-01 -8.92808810e-02 -1.82516456e-01
      -2.33102962e-02 3.31231467e-02 -2.27754965e-01 -3.59911770e-02
      -2.08492339e-01 -7.32075870e-02 2.04886839e-01 9.02298391e-02
      9.83518176e-03 8.62413645e-02 3.68138812e-02 -1.65165782e-01
      -8.49618539e-02 -7.95719847e-02 1.44104749e-01 1.33933410e-01
      8.93615410e-02 6.64683953e-02 -4.73171845e-03 -1.52855990e-02
      -2.36255735e-01 -1.83849055e-02 4.70965542e-02 1.90156370e-01
      3.25637758e-01 2.35592306e-01 5.58321215e-02 1.19693428e-01
      -6.19128048e-02 -1.70267075e-01 3.59496102e-02 -1.73247620e-01
      1.70938857e-02 -5.41367903e-02 2.45839562e-02 -7.96901584e-02
      -1.22014433e-03 -2.36260742e-02 9.02258046e-03 2.17296466e-01
      4.85075675e-02 1.65843040e-01 -1.14670739e-01 -5.21171577e-02
      -3.19199443e-01 -5.92584610e-02 -2.71050576e-02 -2.13933766e-01
      7.61180464e-03 3.36434580e-02 8.59200060e-02 -1.10394917e-01
      1.78154837e-02 -9.67045724e-02 7.93938041e-02 -1.82796597e-01
      8.72584432e-02 1.65777311e-01 4.17542756e-02 1.32568881e-01
      -1.28027290e-01 4.24106419e-02 -2.08016500e-01 5.17717702e-03
      -1.50959715e-02 -1.97558567e-01 -1.34976462e-01 -1.85008034e-01
      -5.47614843e-02 -1.41837552e-01 6.63956031e-02 -6.56513646e-02
      -7.75075145e-03 9.95404795e-02 -9.76506844e-02 3.77459191e-02
      -4.47240192e-03 -8.24318975e-02 -6.09323680e-02 1.74664259e-01
      1.76535785e-01 1.69990882e-01 2.97805797e-02 -2.17187732e-01
      -1.65630311e-01 -2.94832081e-01 -5.06333224e-02 -8.38912502e-02
      5.48828989e-02 9.14686918e-02 7.62859061e-02 1.25062510e-01
      -6.14167005e-03 -5.90102151e-02 3.53231952e-02 3.99896801e-02
      1.52005613e-01 2.76944309e-01 2.64700413e-01 1.39233768e-01
      4.68743071e-02 -1.00384302e-01 -3.68819013e-02 1.46870837e-01
      2.93959100e-02 -8.49244297e-02 -7.31606334e-02 -3.46222147e-02
      6.82274029e-02 -1.10887028e-01 -2.56548822e-01 -2.86466144e-02
      6.64913505e-02 7.68533871e-02 -2.11788490e-01 -8.64322856e-02
      -1.73170865e-01 -7.59186819e-02 3.32062617e-02 -8.38893130e-02
      9.27144065e-02 1.23376422e-01 2.00126499e-01 3.73272486e-02
      5.54442108e-02 1.40069991e-01 1.38578802e-01 -3.62085365e-02
      -1.44903377e-01 -1.05460025e-01 -7.94170648e-02 1.02436639e-01
      8.55927467e-02 8.50144997e-02 4.14297469e-02 5.45327179e-02
      -2.76253700e-01 -2.67357647e-01 -8.08306783e-02 1.41417338e-02
      5.96479364e-02 5.49148954e-02 1.11777976e-01 -1.44176096e-01
      -3.09102148e-01 -1.91901401e-01 -2.01582566e-01 3.05310283e-02
      2.99364142e-02 -8.02583620e-02 2.59180134e-03 -6.60211369e-02
      -2.00201571e-01 -3.82488191e-01 -4.92646247e-02 -1.35216698e-01
      -9.87409875e-02 -1.23045459e-01 1.71451271e-02 1.65696844e-01
      1.73838764e-01 4.36490215e-02 -9.22748074e-03 -1.35682404e-01
      -4.68154065e-02 -8.77162516e-02 -2.49659911e-01 6.38774857e-02
      1.09333895e-01 5.95651269e-02 -9.84318331e-02 -1.27942190e-01
      -1.83301851e-01 -1.04393169e-01 4.71721962e-02 1.05766125e-01
      1.08328156e-01 6.61810040e-02 1.52403221e-01 -1.44178152e-01
      -1.94042876e-01 -1.35638803e-01 -9.43670645e-02 -6.86079785e-02
      -3.21297348e-02 1.93752170e-01 1.22439072e-01 1.20192468e-01
      -1.44602284e-01 -8.54323059e-02 -1.15350150e-01 -4.05015871e-02
      -5.25924191e-02 -3.72518152e-02 2.28387177e-01 2.42494270e-02
      -2.71880571e-02 -1.62738815e-01 -1.85248047e-01 -3.08078993e-02
      -1.32074639e-01 -1.14682153e-01 1.97956227e-02 8.86917412e-02
      -1.01453900e-01 -2.06549540e-02 -1.58557758e-01 -4.50239405e-02
      6.86475188e-02 -2.77427584e-02 2.72921734e-02 1.54299468e-01
      1.61389008e-01 -2.30041500e-02 1.48196965e-01 -1.44947082e-01
      6.41572624e-02 -1.62115127e-01 1.93496072e-03 3.55884582e-02
      1.89614668e-02 8.47450420e-02 -1.27118856e-01 1.20739602e-02
      -1.87186047e-01 -1.65970668e-01 -1.07056294e-02 -3.69587280e-02
      7.87814409e-02 8.04589912e-02 6.26932606e-02 -6.06052466e-02
      -1.65988207e-02 -6.05051965e-02 1.01957723e-01 -1.27621919e-01
      -1.75752565e-01 -8.74905363e-02 -7.31552988e-02 -1.24476992e-01
      -2.02703983e-01 -2.08529219e-01 -9.22861993e-02 -1.59330100e-01
      9.41416994e-02 2.70667747e-02 3.96166407e-02 -1.45769179e-01
      -1.47467896e-01 -7.92080909e-02 -1.16802536e-01 1.76169928e-02
      -1.08369708e-01 1.34852648e-01 6.43471479e-02 -3.07338331e-02
      -5.09429909e-02 1.17908314e-01 1.29455835e-01 2.45408326e-01
      2.46576607e-01 1.15799405e-01 -3.26242372e-02 -2.44702380e-02
      4.48973849e-02 -5.44164740e-02 -1.99605957e-01 -2.82243162e-01
      -1.60629004e-01 -1.24567151e-01 -1.45856500e-01 2.09361419e-01
      7.65880272e-02 8.88523832e-02 6.37990162e-02 5.75608835e-02
      -1.13824464e-01 -1.54400676e-01 -1.91470385e-01 -3.59105915e-02
      1.05224662e-02 -1.40011132e-01 -5.88656515e-02 -1.61226410e-02
      1.14684217e-01 5.53623550e-02 1.21941544e-01 1.80281460e-01
      4.78917733e-02 -1.83238764e-03 -1.03090137e-01 -1.01234771e-01
      -1.29707847e-02 1.63420975e-01 4.22639176e-02 8.36839974e-02
      2.13831827e-01 1.24989435e-01 -8.60194191e-02 -5.27760498e-02
      5.42648993e-02 -6.84849638e-03 -8.41436628e-03 -6.47162870e-02
      -1.47868603e-01 -1.40835062e-01 -1.78990006e-01 -1.19781397e-01
      -1.14480786e-01 -4.77102548e-02 -5.13786974e-04 -6.40152320e-02
      -2.74056613e-01 -9.54688117e-02 -4.63980436e-02 -4.13776971e-02
      3.60644013e-02 -1.45349547e-01 -1.74376398e-01 -1.47737473e-01
      -5.35900146e-02 6.62370622e-02 8.46630558e-02 2.06607029e-01
      1.04429834e-01 -1.30476773e-01 -1.42356977e-01 -2.62349576e-01
      -3.67263019e-01 -9.77779478e-02 -1.02601096e-01 -8.63186419e-02
      -1.00068845e-01 -1.03252400e-02 -2.37604417e-02 -1.37913331e-01
      -6.76100850e-02 3.70652676e-02 -5.16649969e-02 -2.19203327e-02
      -4.38787229e-02 9.99218076e-02 1.42548848e-02 6.03755657e-03
      -1.17896549e-01 -7.73587748e-02 -1.19471885e-01 1.92320161e-02
      -1.86783671e-01 -2.11901128e-01 -2.23497838e-01 7.48088164e-03
      1.18824132e-01 -5.64947762e-02 -4.23874483e-02 -1.77962288e-01
      1.49366260e-01 -3.77365611e-02 4.10997495e-03 -3.15915537e-03
      3.67179234e-03 1.82347093e-02 -1.00200132e-01 -4.92172800e-02
      -3.40109430e-02 6.12504221e-02 -2.12450698e-01 -4.09392379e-02
      -6.94698766e-02 7.57471547e-02 2.10361108e-02 -1.71120346e-01
      -7.29775801e-02 -8.95611867e-02 6.40603378e-02 -1.17252991e-01
      -9.47616473e-02 -1.25249088e-01 2.05450095e-02 -1.17256075e-01
      -3.16378146e-01 -1.96470410e-01 -2.58516639e-01 5.91832660e-02
      -1.81546718e-01 -9.14686173e-02 -1.71617240e-01 -7.70464912e-02
      3.70196663e-02 1.99691635e-02 1.05101682e-01 6.55795494e-03
      -1.05529430e-03 -9.68160927e-02 1.35583626e-02 1.43000381e-02
      1.92063183e-01 1.23085780e-02 -3.55620049e-02 -9.80691686e-02
      -8.07896331e-02 -1.69680834e-01 -1.87071964e-01 -2.62442809e-02
      -1.25486208e-02 1.11695237e-01 -3.56281437e-02 -1.22473404e-01
      -1.70604348e-01 -1.88898340e-01 -1.61337599e-01 -1.14375658e-01
      -2.87600011e-02 -1.67027920e-01 3.83758545e-02 1.16250175e-03
      -1.71979532e-01 -1.35635242e-01 -3.05584282e-01 -2.59221941e-01
      -1.88620374e-01 9.22088698e-03 -1.81250155e-01 4.47265878e-02
      4.36598025e-02 6.87630326e-02 1.99835375e-01 -1.13126069e-01
      -9.25054848e-02 -1.46159187e-01 -1.12015409e-02 -9.24018174e-02
      -6.03068620e-02 1.39840797e-01 9.58810151e-02 1.86582208e-01
      1.49927095e-01 3.27804945e-02 -3.26627120e-03 -2.05290005e-01
      -1.44067928e-01 -1.97590932e-01 -1.55651178e-02 2.55018584e-02
      1.30238190e-01 3.91263366e-02 8.44412670e-03 5.07666022e-02
      -3.88305746e-02 -1.51150376e-01 -3.12820449e-02 6.30667731e-02
      4.87854332e-02 1.12262517e-01 7.04361871e-02 1.54156744e-01
      -3.40987705e-02 -1.84667170e-01 -1.85246184e-01 -1.10576607e-01
      1.17453277e-01 7.61784986e-02 -9.03442036e-03 -1.40968487e-01
      3.22179426e-03 -5.85140139e-02 -1.15473308e-01 -1.55470282e-01
      -1.16824685e-02 3.13743353e-02 -6.78581148e-02 2.71205548e-02
      9.05237943e-02 6.63560703e-02 -1.79055482e-01 -4.27524559e-02
      -1.46176085e-01 -2.15480357e-01 -4.95435577e-03 4.81127575e-02
      7.14797005e-02 -1.38925031e-01 9.04867724e-02 6.82263123e-03
      8.05772245e-02 -8.23602453e-02 -1.14921868e-01 -2.13740781e-01
      -5.28877266e-02 -2.88889129e-02 -8.77411570e-03 9.46021527e-02
      -1.61835887e-02 -1.01119711e-03 -3.81606929e-02 -1.69546485e-01
      -6.12833425e-02 -9.03205723e-02 3.38185132e-02 2.03705400e-01
      1.43482760e-01 2.34267507e-02 -6.60720933e-03 6.57006204e-02
      -5.38510941e-02 5.37838228e-02 -9.82137993e-02 9.04857963e-02
      7.26092830e-02 6.65850490e-02 -1.06279545e-01 -1.44303098e-01
      -7.76741747e-03 4.90740277e-02 -9.76946354e-02 -1.54314771e-01
      4.49092016e-02 4.99354973e-02 1.28740072e-01 -1.44139573e-01
      -8.81714895e-02 -7.18026087e-02 -1.43652603e-01 -1.04294598e-01
      -1.72027230e-01 -1.62273392e-01 -2.62483656e-01 -3.66651788e-02
      -3.73474777e-01 7.74907023e-02 -2.85516102e-02 3.19408253e-02
      -2.79916618e-02 -1.31989375e-01 4.01610509e-02 8.56190920e-02
      1.97691023e-01 -2.75996365e-02 -1.14062481e-01 -6.85633197e-02
      9.94129921e-04 -1.72996610e-01 -3.21352720e-01 -7.77058378e-02
      -8.06426704e-02 1.83468133e-01 -1.00334780e-02 -3.63380872e-02
      -3.28658849e-01 -1.78869233e-01 -2.96262745e-02 -1.00621790e-01
      7.85299316e-02 -2.27747615e-02 1.35551050e-01 -2.21247524e-01
      -5.42341843e-02 -5.33665530e-02 9.24783200e-02 8.75978023e-02
      -1.24270387e-01 -2.67303325e-02 -1.18199904e-02 1.66782394e-01
      -8.27300400e-02 -8.44913498e-02 -2.01164797e-01 -3.62807848e-02
      -6.37657270e-02 -1.04827337e-01 -7.14095905e-02 -1.07159980e-01
      7.64676705e-02 1.44222036e-01 1.32380232e-01 -2.99924195e-01
      3.65019515e-02 -6.37829751e-02 -1.89904392e-01 -1.27728716e-01
      -1.65525198e-01 -7.09275007e-02 4.07554470e-02 1.94449037e-01
      -1.28161713e-01 3.94796021e-02 5.67834750e-02 2.72937734e-02
      -1.47543438e-02 -3.92502211e-02 3.02847207e-01 7.39742666e-02
      3.85717563e-02 -1.27290398e-01 -2.15440691e-02 -5.65843396e-02
      -8.29651803e-02 -9.20305327e-02 -1.54821664e-01 1.69628710e-01
      2.41747759e-02 3.18530016e-02 -1.76368535e-01 -5.49214520e-02
      -1.95444524e-02 -8.30404758e-02 -6.37108386e-02 -1.14478715e-01
      6.11041449e-02 1.07962653e-01 4.23821900e-03 -1.24086395e-01
      -3.40675451e-02 4.16575074e-02 3.20954174e-02 1.03828751e-01
      -1.11766942e-01 -7.94854537e-02 -4.09544855e-02 -4.98227030e-02
      -2.83954218e-02 7.63346106e-02 3.37150656e-02 -9.11825299e-02
      3.48220058e-02 -6.22106716e-02 -2.73143798e-02 1.82882473e-01
      1.65081680e-01 -2.58386046e-01 -1.15900733e-01 -2.61464715e-02
      6.47227764e-02 1.49478674e-01 -1.05100714e-01 -7.99296238e-03
      -1.74788292e-02 9.40399542e-02 -2.52817333e-01 -1.17767774e-01
      -3.23662646e-02 2.14143861e-02 8.62210430e-03 -4.91031334e-02
      7.29613155e-02 5.12816459e-02 1.67129472e-01 -5.63920438e-02
      -1.18732303e-02 -8.50869864e-02 -1.74171552e-02 4.47572805e-02
      3.77717465e-02 5.41731678e-02 7.60768726e-02 9.06393006e-02
      -1.03264619e-02 -1.27632305e-01 -7.55558461e-02 2.78655626e-02
      2.56568026e-02 -1.12525344e-01 -2.59159878e-02 -1.16995990e-01
      1.10068932e-01 -2.13619694e-01 -1.52716637e-01 3.73325199e-02
      -7.09436834e-03 7.50452355e-02 -1.26409218e-01 8.57035592e-02
      -7.56097492e-03 1.30406216e-01 -1.05081730e-01 2.14855373e-02
      6.94019161e-03 2.87375636e-02 8.42392966e-02 -6.97698370e-02
      7.45935366e-03 -3.53016891e-02 2.04317234e-02 5.55987097e-02
      -1.93510503e-02 1.37356007e-02 -4.58829999e-02 -3.72764878e-02
      -2.94202328e-01 -2.26562932e-01 -3.05833668e-01 2.26630382e-02
      6.96396409e-03 9.65664908e-03 5.37271835e-02 2.41437834e-02
      1.77741006e-01 -1.55679151e-01 1.28067741e-02 -1.24918975e-01
      -4.09253314e-02 7.64685273e-02 6.46638423e-02 1.06489353e-01
      3.66349556e-02 5.50825633e-02 -1.70819938e-01 -7.62707517e-02
      -3.47468197e-01 -6.11753576e-02 -1.02674715e-01 5.04593924e-02
      3.67452018e-02 -9.62846503e-02 -5.91857592e-03 -2.01089397e-01
      7.74098933e-02 -2.92976052e-01 5.70344692e-03 -2.01377243e-01
      -4.85505257e-03 9.27670524e-02 -7.92853385e-02 -1.77470222e-01
      -1.08760998e-01 1.34562761e-01 -6.98810220e-02 -9.68141295e-03
      -2.10055709e-01 -1.52330492e-02 6.22499250e-02 -9.50821340e-02
      5.12988642e-02 -2.02320829e-01 -8.97637531e-02 -1.96418941e-01
      5.85454963e-02 -8.58031884e-02 -9.61550511e-03 1.72989741e-02
      -5.63675314e-02 6.11384287e-02 -1.26161411e-01 6.64689019e-02
      -7.11985230e-02 5.30315854e-04 -3.70052643e-02 -4.73365411e-02
      1.65957019e-01 2.57172398e-02 -1.69297859e-01 -2.12347627e-01
      2.18702137e-01 2.51278002e-03 -4.30592261e-02 -1.82244286e-01
      -5.95844612e-02 -1.11715712e-01 -1.29993454e-01 -1.14399485e-01
      -2.09421650e-01 1.95129216e-01 -3.37993586e-03 -1.59443885e-01
      -2.13386729e-01 -3.52486297e-02 2.35651974e-02 4.44642734e-03
      3.65491724e-04 -1.93089396e-02 2.21890792e-01 3.00947875e-02
      -7.64885023e-02 -2.59876996e-02 -7.98829496e-02 -4.28323783e-02
      -1.26681596e-01 2.91886949e-03 -9.57994536e-03 1.99943990e-01
      -1.45106182e-01 -1.37442142e-01 -2.19375521e-01 -3.91167887e-02</_></support_vectors>
  <uncompressed_sv_total>66</uncompressed_sv_total>
  <uncompressed_support_vectors>
    <_>
      2.77538538e-01 2.77538538e-01 1.11656591e-01 5.22199310e-02
      5.84490523e-02 4.08449657e-02 3.20109203e-02 8.14662129e-02
      1.56211138e-01 2.77538538e-01 2.77538538e-01 9.21665430e-02
      1.02714635e-01 1.43984914e-01 9.28320214e-02 7.98290893e-02
      1.39127970e-01 2.06839845e-01 2.77538538e-01 2.77538538e-01
      9.89945978e-02 8.31987932e-02 5.57770990e-02 4.89350148e-02
      4.89696003e-02 8.67215768e-02 2.34515354e-01 2.77538538e-01
      2.77538538e-01 2.55276740e-01 8.85362700e-02 4.18593846e-02
      3.34835947e-02 2.70197932e-02 1.08120821e-01 1.90563917e-01
      2.59277672e-01 1.67980656e-01 8.33276063e-02 1.65306002e-01
      2.39202127e-01 1.29974589e-01 7.87032321e-02 8.99038836e-02
      1.40782744e-01 2.69267112e-01 2.69267112e-01 1.68847919e-01
      2.05968350e-01 2.11628810e-01 6.39477819e-02 5.44892550e-02
      5.46497814e-02 2.06138089e-01 2.69267112e-01 2.69267112e-01
      1.83912098e-01 9.76059139e-02 5.84542938e-02 2.78725028e-02
      3.88821177e-02 8.10832754e-02 1.64486647e-01 2.69267112e-01
      2.50399232e-01 3.85662839e-02 5.34344465e-02 2.31155660e-02
      1.35137960e-02 4.87652309e-02 5.72679043e-02 2.69267112e-01
      2.99485117e-01 2.99485117e-01 1.25503942e-01 1.13555968e-01
      1.31421730e-01 3.48731503e-02 1.97729468e-02 1.33891543e-02
      1.30106032e-01 2.91303188e-01 2.99485117e-01 2.24528581e-01
      1.23385705e-01 2.93357760e-01 1.66027755e-01 3.41057479e-02
      1.55273229e-02 8.88791755e-02 2.99485117e-01 2.99485117e-01
      2.67021768e-02 2.20736247e-02 1.25195887e-02 1.07530802e-02
      9.79897007e-03 1.47938961e-02 1.67175114e-01 2.76042968e-01
      2.99485117e-01 7.52712265e-02 3.73089537e-02 2.63842624e-02
      9.99647658e-03 4.51823371e-03 1.06146904e-02 8.29663351e-02
      2.78378278e-01 2.78378278e-01 2.35947669e-01 1.32651955e-01
      2.78378278e-01 2.47689813e-01 1.08755991e-01 6.90521374e-02
      2.78378278e-01 2.78378278e-01 2.78378278e-01 9.61402953e-02
      1.47037789e-01 2.78378278e-01 1.32523715e-01 9.59778503e-02
      4.77168486e-02 2.29028642e-01 9.99151245e-02 1.92346603e-01
      8.16679299e-02 4.95211631e-02 3.28221694e-02 1.42657747e-02
      2.72697285e-02 4.65366989e-02 1.28439128e-01 6.96992651e-02
      3.83114032e-02 4.40936945e-02 8.94015357e-02 1.99833393e-01
      1.68945864e-01 1.42090783e-01 6.24096766e-02 7.45783374e-02
      2.10179910e-01 2.76303262e-01 1.70671627e-01 2.60349572e-01
      2.76303262e-01 1.76905379e-01 1.39807791e-01 4.47353683e-02
      3.47284451e-02 1.16178565e-01 1.89862609e-01 1.32064253e-01
      1.60114273e-01 2.23921672e-01 1.07547022e-01 9.51100662e-02
      5.57419844e-02 2.16420516e-02 2.26914100e-02 2.58709993e-02
      4.93981689e-02 1.15595229e-01 2.76303262e-01 2.76303262e-01
      2.76303262e-01 1.07911684e-01 1.05715543e-02 4.87408079e-02
      5.87438457e-02 6.11731969e-02 8.85206014e-02 1.73994675e-01
      2.76303262e-01 2.76303262e-01 1.50475547e-01 4.10209484e-02
      2.96574682e-01 2.96574682e-01 2.30162650e-01 2.96574682e-01
      1.33894518e-01 5.88596091e-02 6.54945746e-02 3.52666005e-02
      9.79019105e-02 2.96574682e-01 2.96574682e-01 2.21824661e-01
      1.00991890e-01 1.75751317e-02 1.04417242e-02 1.50455050e-02
      4.03506979e-02 8.83286446e-02 1.28252447e-01 2.84873098e-01
      2.93229252e-01 2.96574682e-01 2.34878033e-01 1.00164771e-01
      4.39656712e-02 1.32449241e-02 1.68826263e-02 9.87381339e-02
      1.54887244e-01 8.69147703e-02 1.16878070e-01 4.16712761e-02
      1.00128232e-02 2.04272866e-02 2.45753955e-02 3.66253406e-02
      2.91669250e-01 2.91669250e-01 2.25030184e-01 2.90995818e-02
      1.59150939e-02 1.65705606e-02 4.08025458e-02 7.02262446e-02
      1.94199011e-01 2.91669250e-01 2.08274275e-01 4.34488282e-02
      1.94425974e-02 3.67690101e-02 3.04731894e-02 3.86847630e-02
      4.97256294e-02 2.91669250e-01 2.91669250e-01 1.61306351e-01
      6.31913319e-02 3.81109230e-02 3.08958907e-02 2.12266892e-02
      4.21558656e-02 7.19860867e-02 2.04624683e-01 2.91669250e-01
      2.91669250e-01 1.48653954e-01 9.70242694e-02 9.22110304e-02
      1.39665559e-01 1.00353360e-01 1.30415767e-01 2.91669250e-01
      2.89763868e-01 1.14524670e-01 1.62750967e-02 1.56922247e-02
      2.28157770e-02 1.77597590e-02 9.88319516e-03 2.78401114e-02
      2.89763868e-01 1.67711154e-01 6.32704347e-02 1.17148124e-02
      2.08055656e-02 2.16929540e-02 1.26877530e-02 3.21196988e-02
      9.01450217e-02 2.89763868e-01 2.89763868e-01 1.84167996e-01
      1.20975748e-01 1.06572025e-01 1.34851083e-01 2.22327158e-01
      1.31665736e-01 1.27754539e-01 2.89763868e-01 2.51529962e-01
      4.15026769e-02 5.00368774e-02 4.87998687e-02 8.56405869e-02
      1.70831114e-01 2.89763868e-01 2.89763868e-01 2.89763868e-01
      8.27775896e-02 2.61755064e-02 1.55758988e-02 2.73453537e-02
      2.22744681e-02 2.19361018e-02 9.30316076e-02 1.76056713e-01
      3.22980732e-01 3.96226086e-02 4.19900939e-02 5.66458143e-02
      5.99177442e-02 9.28169340e-02 1.83760270e-01 1.72542438e-01
      1.23792566e-01 1.33645251e-01 1.65193662e-01 1.93594843e-02
      1.40812574e-02 2.12616026e-02 1.79448947e-02 6.53943121e-02
      3.22980732e-01 3.22980732e-01 3.22980732e-01 3.22980732e-01
      1.59986153e-01 7.32994899e-02 8.76111984e-02 4.29541655e-02
      8.04266632e-02 1.48525104e-01 3.22980732e-01 3.22980732e-01
      1.49909453e-02 2.25757360e-02 4.10752781e-02 3.13079618e-02
      1.06857896e-01 2.46393964e-01 2.46393964e-01 1.08600199e-01
      1.61272101e-02 5.25448248e-02 4.20618840e-02 5.87423965e-02
      6.61210492e-02 1.56275973e-01 2.46393964e-01 2.46393964e-01
      2.46393964e-01 5.17499074e-02 2.46393964e-01 1.05309717e-01
      5.02975471e-02 4.70619984e-02 5.63275255e-02 1.16768651e-01
      1.34394169e-01 1.14441067e-01 2.46393964e-01 2.46393964e-01
      2.46393964e-01 1.22876808e-01 1.06241837e-01 2.31092006e-01
      2.46393964e-01 2.46393964e-01 2.43104190e-01 2.46393964e-01
      6.98423684e-02 9.70745608e-02 1.69621632e-01 2.83648044e-01
      2.43493855e-01 2.33921364e-01 3.02074909e-01 8.27142820e-02
      4.04209271e-02 1.03731304e-01 8.32415000e-02 9.94407088e-02
      1.40026689e-01 8.55213404e-02 3.47759463e-02 2.61371043e-02
      3.00666206e-02 4.88290116e-02 1.12944610e-01 6.65833727e-02
      4.96390425e-02 3.02074909e-01 3.02074909e-01 3.02074909e-01
      3.02074909e-01 9.95783284e-02 9.15090889e-02 1.13335371e-01
      9.62070301e-02 8.28457847e-02 1.89016387e-01 2.47809306e-01
      2.14777112e-01 9.66318697e-02 9.86273587e-02 7.61816949e-02
      2.56499022e-01 1.51770651e-01 7.62221664e-02 9.22409296e-02
      6.46442026e-02 2.61251889e-02 2.97410060e-02 4.35645394e-02
      1.71363309e-01 2.56499022e-01 2.56499022e-01 1.47846326e-01
      1.24983564e-01 1.08877733e-01 1.21566325e-01 6.56975433e-02
      7.43484795e-02 2.28119016e-01 2.23264977e-01 1.33040518e-01
      9.69022810e-02 1.70790404e-01 2.01998368e-01 1.77829057e-01
      1.76673353e-01 1.90202430e-01 9.50529277e-02 2.56499022e-01
      2.56499022e-01 1.72804952e-01 2.56499022e-01 2.56499022e-01
      1.55567035e-01 1.13505475e-01 9.69084799e-02 7.24049136e-02
      2.37027675e-01 2.37027675e-01 1.61519170e-01 1.80648282e-01
      2.12342888e-01 2.37027675e-01 1.17837057e-01 8.10599178e-02
      1.55659586e-01 1.48614049e-01 3.11298277e-02 6.29098564e-02
      1.00664437e-01 1.55417606e-01 2.08625525e-01 2.37027675e-01
      2.37027675e-01 2.37027675e-01 1.13011286e-01 1.58571810e-01
      1.41853198e-01 2.37027675e-01 2.37027675e-01 1.43689126e-01
      4.03585248e-02 5.88179789e-02 5.16425520e-02 7.99601972e-02
      3.51800881e-02 7.60294199e-02 1.36846393e-01 2.02984855e-01
      1.46207064e-01 9.54053998e-02 2.37027675e-01 2.20017686e-01
      8.30936134e-02 1.17690470e-02 7.33547285e-03 1.10539598e-02
      2.56679691e-02 9.78999063e-02 2.28218362e-01 2.65813172e-01
      2.65135765e-01 2.11231232e-01 9.32172835e-02 3.33186164e-02
      7.27465972e-02 9.51723307e-02 2.65813172e-01 1.21484503e-01
      2.65813172e-01 2.65813172e-01 7.70935565e-02 1.59223713e-02
      4.40318175e-02 7.43416101e-02 7.15697482e-02 2.25935966e-01
      1.67187721e-01 2.65813172e-01 2.29370117e-01 8.44571516e-02
      5.04652262e-02 5.62224388e-02 1.15147300e-01 1.85171396e-01
      2.65813172e-01 2.65813172e-01 2.01499820e-01 1.67312577e-01
      2.43417844e-01 1.20118961e-01 4.82064299e-02 9.13854763e-02
      1.03776917e-01 1.97038159e-01 4.10868488e-02 1.16379350e-01
      2.43417844e-01 2.43417844e-01 2.43417844e-01 1.17490023e-01
      9.30501446e-02 1.23624250e-01 1.38362944e-01 1.04663938e-01
      2.41982549e-01 2.43417844e-01 1.50257155e-01 1.28833160e-01
      1.12989701e-01 1.49513379e-01 1.54633805e-01 2.43417844e-01
      1.66382894e-01 1.21110946e-01 1.37621969e-01 2.37113535e-01
      1.85613975e-01 1.25020936e-01 1.17919266e-01 8.10848176e-02
      8.76851901e-02 1.15097433e-01 2.43417844e-01 2.43417844e-01
      1.57957122e-01 3.86308059e-02 4.85703871e-02 2.71162957e-01
      2.71162957e-01 2.71162957e-01 1.71400636e-01 8.69899541e-02
      1.04369134e-01 7.38978088e-02 3.91037464e-02 2.24172901e-02
      6.06781952e-02 8.94748792e-02 1.14249110e-01 1.37728691e-01
      1.49827018e-01 8.87336507e-02 1.85540125e-01 3.34291682e-02
      7.69539922e-02 2.09134698e-01 1.48114800e-01 2.71162957e-01
      2.71162957e-01 2.71162957e-01 1.81889430e-01 1.11088380e-01
      3.01624741e-02 1.80377737e-02 4.89551425e-02 5.04131131e-02
      1.36470929e-01 2.71162957e-01 2.71162957e-01 2.71162957e-01
      1.98040139e-02 2.31056102e-02 2.57599577e-02 8.20821300e-02
      1.07822649e-01 1.91076413e-01 1.98418915e-01 1.67456150e-01
      4.90319394e-02 3.48648503e-02 5.52799292e-02 1.11455657e-01
      2.06951663e-01 2.33325258e-01 2.21830949e-01 1.49948969e-01
      9.66124013e-02 7.58850724e-02 1.78195879e-01 5.24054356e-02
      2.14628838e-02 1.50327086e-01 1.87765762e-01 2.11651728e-01
      2.43063331e-01 2.43063331e-01 2.43063331e-01 2.43063331e-01
      1.19069330e-01 1.36573106e-01 2.43063331e-01 2.43063331e-01
      2.43063331e-01 1.37349024e-01 9.27262008e-02 2.43063331e-01
      3.21094655e-02 8.59289542e-02 1.57281101e-01 2.25667715e-01
      2.25667715e-01 1.40572801e-01 4.95005138e-02 7.92404115e-02
      1.24187462e-01 7.28782043e-02 8.72392431e-02 1.43187597e-01
      1.68160111e-01 1.87667131e-01 1.87321395e-01 7.23620355e-02
      1.87383518e-01 1.32033736e-01 1.19581215e-01 1.42446980e-01
      1.87028944e-01 1.90278888e-01 2.25667715e-01 1.67370588e-01
      1.13527723e-01 1.76151872e-01 2.25667715e-01 2.25667715e-01
      2.25667715e-01 2.25667715e-01 1.34319395e-01 1.36513174e-01
      1.94959044e-01 1.41985565e-01 2.25667715e-01 2.25667715e-01
      6.43562302e-02 8.17574039e-02 1.09892458e-01 1.74376681e-01
      1.33965954e-01 1.37207121e-01 8.94916654e-02 9.13880914e-02
      1.13790937e-01 7.39487410e-02 1.42957121e-01 2.30742067e-01
      2.29537010e-01 1.55467644e-01 2.34741166e-01 2.31229603e-01
      6.40473664e-02 9.30586830e-02 2.60703057e-01 2.60703057e-01
      2.28742704e-01 1.59088567e-01 1.09411076e-01 1.00186348e-01
      8.11917931e-02 1.85409382e-01 1.11914083e-01 2.60703057e-01
      2.60703057e-01 2.60703057e-01 2.60703057e-01 9.72148329e-02
      3.99808250e-02 5.53961396e-02 6.76719174e-02 1.45046934e-01
      2.20812514e-01 2.49763757e-01 2.49763757e-01 2.08541855e-01
      8.38185549e-02 1.68582574e-01 1.58700883e-01 6.74540997e-02
      5.39472215e-02 2.49763757e-01 2.49763757e-01 1.52356416e-01
      5.95282353e-02 2.64210589e-02 3.16987745e-02 6.67843595e-02
      2.04306468e-01 2.49763757e-01 2.49763757e-01 2.49763757e-01
      2.49763757e-01 2.49763757e-01 4.76714149e-02 3.21030319e-02
      3.70280556e-02 6.21186607e-02 1.71725765e-01 2.22471073e-01
      2.33744666e-01 9.50844288e-02 3.29558477e-02 2.59643421e-02
      3.10527869e-02 5.09165078e-02 1.22294597e-01 1.72045618e-01
      7.70969540e-02 1.74469035e-02 2.02372763e-02 8.77315830e-03
      3.38592716e-02 2.14105844e-01 2.52769917e-01 2.52769917e-01
      1.25192583e-01 9.87161696e-02 2.77610179e-02 1.95907988e-02
      6.32057786e-02 1.91633895e-01 2.40844935e-01 2.52769917e-01
      2.52769917e-01 2.52769917e-01 1.80732578e-01 3.52326855e-02
      2.10386645e-02 1.42293070e-02 4.07203622e-02 8.09850097e-02
      2.47792616e-01 1.98963240e-01 2.21062452e-01 1.02874242e-01
      8.77358988e-02 9.45180729e-02 1.74836889e-01 2.52769917e-01
      2.52769917e-01 2.52769917e-01 1.75760463e-01 1.61292955e-01
      2.73196936e-01 6.64545000e-02 2.52056979e-02 1.23353384e-01
      2.64853805e-01 2.25642145e-01 1.65386960e-01 1.49695724e-01
      2.73196936e-01 2.73196936e-01 1.13548741e-01 1.03943482e-01
      1.34034768e-01 2.24881724e-01 1.14933923e-01 5.13678230e-02
      3.97016779e-02 2.73196936e-01 1.19603030e-01 7.09323436e-02
      6.88745454e-02 2.31546119e-01 2.73196936e-01 2.73196936e-01
      1.02324232e-01 4.66906130e-02 2.12789223e-01 1.77434683e-01
      5.73354959e-02 5.23206294e-02 7.94849917e-02 1.24991268e-01
      6.19199574e-02 3.57009247e-02 2.74557844e-02 2.18554303e-01
      2.44754776e-01 1.05882689e-01 1.23872936e-01 8.75176936e-02
      1.49101332e-01 8.94011706e-02 9.92440209e-02 1.72217131e-01
      2.71510333e-01 2.37566710e-01 2.71510333e-01 1.84239313e-01
      3.78058180e-02 5.75168692e-02 9.34439152e-02 1.44048974e-01
      2.71510333e-01 2.71510333e-01 1.68208733e-01 6.83575794e-02
      7.30349571e-02 5.80160320e-02 7.31232986e-02 8.47980380e-02
      6.50876313e-02 8.98761377e-02 2.42494255e-01 1.99303061e-01
      1.37840271e-01 1.18213065e-01 5.21418825e-02 1.45311564e-01
      1.71801224e-01 1.23118922e-01 2.71510333e-01 2.71510333e-01
      2.65862763e-01 2.65862763e-01 1.00940645e-01 2.66369730e-02
      2.63510142e-02 2.97828354e-02 6.54809698e-02 2.65862763e-01
      2.65862763e-01 2.65862763e-01 2.65862763e-01 1.89327568e-01
      8.11079666e-02 2.26095691e-02 1.12202819e-02 3.16961110e-02
      1.31134480e-01 2.65862763e-01 2.40649030e-01 1.16397962e-01
      7.55555704e-02 3.74878533e-02 7.64274672e-02 6.98771775e-02
      6.19744211e-02 2.12458298e-01 2.56633490e-01 2.65862763e-01
      1.13218851e-01 1.01401582e-01 9.91233885e-02 1.30225509e-01
      1.11380890e-01 5.26913702e-02 1.18158303e-01 2.65862763e-01
      2.54749805e-01 1.05395041e-01 1.37471735e-01 7.54845440e-02
      4.15828899e-02 5.45057431e-02 9.95004326e-02 1.84354812e-01
      2.54749805e-01 1.11760259e-01 6.03277646e-02 2.90525649e-02
      2.66593825e-02 3.31705101e-02 6.04307391e-02 1.20214552e-01
      1.95650354e-01 2.19804868e-01 2.53203779e-01 1.01688109e-01
      1.28821149e-01 1.83199450e-01 2.10694686e-01 1.81806669e-01
      2.27220640e-01 2.35133484e-01 2.54749805e-01 1.15866028e-01
      1.05382085e-01 4.44476157e-02 7.83969313e-02 1.49170980e-01
      1.90840080e-01 2.54749805e-01 2.54749805e-01 2.54749805e-01</_>
    <_>
      2.28983194e-01 2.28983194e-01 1.61073595e-01 1.55201584e-01
      4.47161347e-02 4.05318327e-02 3.43519151e-02 6.43539950e-02
      2.28983194e-01 2.28983194e-01 2.28983194e-01 1.81478292e-01
      7.99709931e-02 4.26769815e-02 3.08132600e-02 1.17157660e-02
      7.18480721e-02 2.01356113e-01 1.65112674e-01 2.28983194e-01
      2.25146785e-01 2.22620547e-01 1.27266690e-01 1.82591677e-01
      2.28983194e-01 2.28983194e-01 2.28983194e-01 1.93549946e-01
      2.25535229e-01 1.94670931e-01 1.13047324e-01 7.72109330e-02
      1.07291818e-01 7.09541962e-02 1.01176299e-01 1.73416361e-01
      2.07567453e-01 2.36793116e-01 1.17497087e-01 1.22693121e-01
      1.02958374e-01 4.82356437e-02 5.13238944e-02 1.11541145e-01
      9.76668447e-02 2.75027961e-01 1.86455503e-01 1.70973942e-01
      2.75027961e-01 2.75027961e-01 2.35273033e-01 2.75027961e-01
      2.75027961e-01 2.75027961e-01 1.38413817e-01 9.28654224e-02
      5.61232530e-02 4.79647666e-02 3.99194434e-02 6.03973642e-02
      3.67089696e-02 7.87609592e-02 8.64393190e-02 2.38221616e-01
      8.57883841e-02 4.59271036e-02 3.16813663e-02 6.59898594e-02
      1.24202862e-01 1.05094343e-01 1.76966116e-01 2.75027961e-01
      2.57678837e-01 2.57678837e-01 2.57678837e-01 2.57678837e-01
      2.57678837e-01 9.34379324e-02 1.24372162e-01 1.43817484e-01
      2.57678837e-01 2.57678837e-01 1.85363844e-01 2.14348525e-01
      2.57678837e-01 2.57678837e-01 8.16851556e-02 7.95625150e-02
      6.52011186e-02 1.85778648e-01 2.51598716e-01 1.04027711e-01
      6.03471659e-02 1.78223141e-02 2.61151362e-02 5.74535392e-02
      4.99254353e-02 8.15541744e-02 2.26339534e-01 1.82259113e-01
      9.05415192e-02 6.13066182e-02 2.64289007e-02 2.03465633e-02
      4.67151031e-02 4.91123646e-02 7.01958984e-02 1.56959355e-01
      1.63979009e-01 9.72422436e-02 7.74272159e-02 1.62622526e-01
      2.15593889e-01 1.79114953e-01 2.00644046e-01 1.84762329e-01
      2.32454464e-01 1.89291567e-01 1.37286469e-01 1.19951271e-01
      2.43876263e-01 2.43876263e-01 2.43876263e-01 2.43876263e-01
      2.43876263e-01 2.43876263e-01 9.86378342e-02 5.28661087e-02
      2.91502625e-02 3.01924609e-02 3.78313139e-02 5.88712953e-02
      8.21395293e-02 1.08058862e-01 1.48648188e-01 1.25460699e-01
      9.07181576e-02 6.66906312e-02 1.12914979e-01 1.96157768e-01
      1.63401216e-01 2.39282012e-01 2.20043913e-01 1.55367851e-01
      3.17803025e-02 2.57071629e-02 3.17959748e-02 1.30571768e-01
      2.83680797e-01 2.83680797e-01 2.83680797e-01 1.57052666e-01
      4.35693376e-02 4.02929746e-02 8.80434550e-03 1.02176927e-02
      2.41859853e-02 1.16645634e-01 1.90581277e-01 2.83680797e-01
      2.83680797e-01 7.82744959e-02 3.62819098e-02 4.09410410e-02
      3.20059583e-02 6.24140762e-02 1.41128749e-01 2.83680797e-01
      2.83680797e-01 2.59521306e-01 4.27672006e-02 4.69047055e-02
      3.25214341e-02 2.45346725e-02 2.54188087e-02 5.17716296e-02
      2.83680797e-01 2.83680797e-01 2.37739056e-01 8.62354562e-02
      8.07089284e-02 8.53175446e-02 2.87446976e-01 2.87446976e-01
      2.38251761e-01 2.86353916e-01 2.87446976e-01 2.17676237e-01
      1.09673873e-01 9.09421444e-02 8.92900378e-02 1.85426414e-01
      1.90122023e-01 1.09649405e-01 1.40390649e-01 9.31545272e-02
      9.07146260e-02 9.40402895e-02 7.09336996e-02 6.02412745e-02
      2.87446976e-01 2.87446976e-01 2.87446976e-01 1.28660873e-01
      7.43046999e-02 3.40048671e-02 3.79486904e-02 8.92175138e-02
      9.29313973e-02 1.67351410e-01 2.07111150e-01 1.25981227e-01
      7.20393062e-02 3.54008786e-02 2.06697080e-02 3.97488996e-02
      2.00790986e-01 1.82828024e-01 1.61963165e-01 1.11003324e-01
      1.46136224e-01 2.37868905e-01 7.73989186e-02 1.32037491e-01
      2.01925471e-01 6.44776821e-02 1.56954929e-01 1.57264188e-01
      1.94205314e-01 2.48813257e-01 2.48813257e-01 1.42586604e-01
      9.64259952e-02 7.69593865e-02 1.88307136e-01 2.48813257e-01
      2.48813257e-01 1.93114847e-01 1.48893654e-01 8.67835358e-02
      3.01303454e-02 2.48467028e-02 5.10144755e-02 6.63255006e-02
      2.48813257e-01 2.48813257e-01 2.48813257e-01 2.39239439e-01
      1.17876902e-01 2.84011029e-02 2.78119813e-03 2.77745817e-03
      5.87257147e-02 8.91376734e-02 8.80521685e-02 1.28905401e-01
      1.89417616e-01 1.94113135e-01 9.14232656e-02 7.77997896e-02
      9.01079997e-02 2.00263679e-01 1.76790074e-01 1.47801325e-01
      1.33860201e-01 1.23631597e-01 1.03698440e-01 8.30601156e-02
      9.42838863e-02 2.44885519e-01 4.75050658e-02 1.38499454e-01
      2.28621036e-01 2.66959846e-01 2.66959846e-01 8.20045769e-02
      3.20806503e-02 2.54603103e-02 1.69316810e-02 2.66959846e-01
      2.66959846e-01 2.66959846e-01 2.55445451e-01 2.66959846e-01
      6.51896223e-02 1.38529390e-01 8.68242756e-02 2.15238929e-01
      9.98042598e-02 8.87244418e-02 6.52379617e-02 6.90071136e-02
      3.43766734e-02 3.71685140e-02 2.14858446e-02 2.56714039e-02
      7.99018294e-02 1.01920642e-01 2.43274570e-01 2.40394309e-01
      1.29358441e-01 1.64802521e-01 1.21816538e-01 1.48088992e-01
      1.29050970e-01 6.89414069e-02 3.07409436e-01 3.07409436e-01
      2.82929093e-01 1.56558126e-01 5.90646416e-02 2.43576132e-02
      3.54031362e-02 4.47140411e-02 1.19717397e-01 3.07409436e-01
      3.07409436e-01 3.07409436e-01 2.62487888e-01 1.00302868e-01
      5.32833301e-02 3.40736955e-02 1.10700317e-01 1.91402376e-01
      7.54836798e-02 1.38467342e-01 1.25899047e-01 6.75602257e-02
      1.39476806e-01 2.82707304e-01 2.82707304e-01 1.41630217e-01
      2.86369324e-02 8.11769143e-02 7.17360452e-02 5.50272651e-02
      4.16886955e-02 1.03597693e-01 2.82707304e-01 2.82707304e-01
      1.28579274e-01 8.42265636e-02 2.59033799e-01 2.82707304e-01
      2.45712295e-01 7.00844675e-02 6.79607987e-02 9.66037437e-02
      4.97241057e-02 4.29799110e-02 1.65270671e-01 2.35161334e-01
      1.41160563e-01 6.15399182e-02 3.91048007e-02 8.17976519e-02
      2.82707304e-01 2.82707304e-01 1.14081629e-01 1.51697963e-01
      9.20532420e-02 8.98392648e-02 2.20707119e-01 3.01257610e-01
      3.01257610e-01 1.63817585e-01 8.20460394e-02 7.08830431e-02
      6.23534620e-02 1.54583320e-01 1.09303832e-01 1.12872288e-01
      1.33650914e-01 1.37174219e-01 1.19473860e-01 6.32193163e-02
      4.23041321e-02 5.30968718e-02 1.55801103e-01 1.67259365e-01
      2.30893463e-01 3.01257610e-01 3.01257610e-01 3.01257610e-01
      1.55733421e-01 1.21075489e-01 1.25624269e-01 2.18860731e-01
      1.35827705e-01 1.05121493e-01 1.52677640e-01 1.08423948e-01
      1.51061952e-01 1.27743691e-01 8.31635296e-02 9.24906731e-02
      2.17545599e-01 2.30402038e-01 2.12417185e-01 1.22760475e-01
      1.46904528e-01 1.12424776e-01 8.42060521e-02 3.89728174e-02
      4.50397320e-02 8.78587589e-02 2.30402038e-01 2.30402038e-01
      1.54624328e-01 1.40848726e-01 9.13510770e-02 8.35034922e-02
      6.42032027e-02 2.67886817e-02 2.30402038e-01 2.23662838e-01
      1.13676593e-01 1.08989537e-01 1.74267948e-01 2.24631771e-01
      2.30402038e-01 1.82468623e-01 1.44952342e-01 1.18629307e-01
      2.12519899e-01 2.08643526e-01 7.26392865e-02 1.76754087e-01
      1.72340661e-01 2.30402038e-01 2.30402038e-01 1.52156860e-01
      2.09730100e-02 7.19852373e-02 1.18087858e-01 9.90208089e-02
      1.15069874e-01 3.52559797e-02 3.63316536e-02 3.50947008e-02
      1.68320835e-02 2.83418596e-01 2.83418596e-01 2.83418596e-01
      1.56512216e-01 1.69883281e-01 8.42327327e-02 1.68943807e-01
      9.46777612e-02 1.08495966e-01 5.18064611e-02 1.03254184e-01
      9.92392972e-02 6.61252141e-02 1.08914480e-01 7.18509182e-02
      1.26924753e-01 1.04403108e-01 4.11389023e-02 2.79448867e-01
      2.83418596e-01 2.36760214e-01 1.48600996e-01 1.81717932e-01
      2.83418596e-01 2.83418596e-01 2.83418596e-01 1.26180053e-01
      2.43276477e-01 2.43276477e-01 1.94867447e-01 1.06752001e-01
      5.68495356e-02 6.58586100e-02 9.01395828e-02 6.34312704e-02
      1.20763116e-01 2.43276477e-01 2.43276477e-01 2.43276477e-01
      1.71778396e-01 7.51541182e-02 9.08248574e-02 6.77676126e-02
      1.39707699e-01 2.11675882e-01 2.21324623e-01 1.50211409e-01
      1.02898531e-01 6.32603988e-02 7.77759999e-02 2.43276477e-01
      2.43276477e-01 2.43276477e-01 1.25960842e-01 1.30873054e-01
      7.06119761e-02 5.88325821e-02 5.97139522e-02 9.33700651e-02
      2.14075118e-01 2.43276477e-01 2.34222680e-01 1.49411812e-01
      2.38895655e-01 2.38895655e-01 1.47401482e-01 7.38411769e-02
      4.42039818e-02 6.77063763e-02 4.35765423e-02 1.24522775e-01
      2.38895655e-01 2.38895655e-01 2.38895655e-01 1.91983715e-01
      5.03066778e-02 4.88592349e-02 1.00312814e-01 6.57105371e-02
      1.49272576e-01 2.38895655e-01 1.63637713e-01 7.26529285e-02
      3.85851264e-02 4.42279950e-02 6.27057701e-02 1.71063170e-01
      2.38895655e-01 2.17017457e-01 2.18893349e-01 1.62764370e-01
      2.38895655e-01 2.23407820e-01 1.47867069e-01 1.48665980e-01
      1.19318038e-01 2.19661549e-01 1.66703075e-01 1.92687556e-01
      7.02254325e-02 5.65529838e-02 8.36121738e-02 1.56813398e-01
      2.44436473e-01 2.85437673e-01 1.69287935e-01 1.26488701e-01
      1.37346864e-01 6.30449504e-02 6.16930127e-02 5.24276085e-02
      9.01309103e-02 7.24377558e-02 6.60137609e-02 6.31052181e-02
      3.32942270e-02 5.63475639e-02 1.77358896e-01 7.77596533e-02
      1.56601951e-01 1.19879462e-01 2.85437673e-01 2.85437673e-01
      2.85437673e-01 2.85437673e-01 2.85437673e-01 8.02374259e-02
      5.95628917e-02 7.25634545e-02 9.18711647e-02 2.06475928e-01
      2.38255560e-01 2.52565682e-01 1.38069168e-01 1.62645146e-01
      5.46327941e-02 6.37636036e-02 3.01310588e-02 5.40739559e-02
      9.99136493e-02 8.92992988e-02 1.34659484e-01 7.78346136e-02
      6.99161589e-02 7.06292391e-02 2.40640804e-01 2.53592163e-01
      9.24343914e-02 7.77118132e-02 6.31364137e-02 1.02331728e-01
      8.99809375e-02 7.36817271e-02 1.43409491e-01 1.83432505e-01
      1.18653677e-01 8.22911933e-02 1.61738604e-01 1.25918135e-01
      1.50342077e-01 1.45943925e-01 1.28807455e-01 3.47323090e-01
      3.47323090e-01 3.47323090e-01 3.47323090e-01 2.51146436e-01
      9.70344543e-02 1.24164149e-01 1.00352637e-01 1.03704326e-01
      1.18099935e-01 2.17871070e-01 1.43569544e-01 3.72416340e-02
      2.23880075e-02 2.48711891e-02 3.38985883e-02 3.29215117e-02
      2.25634351e-02 2.44860530e-01 2.44860530e-01 1.66013822e-01
      4.94975150e-02 5.38732335e-02 1.21963166e-01 2.44860530e-01
      1.57672644e-01 1.90354139e-01 2.38547996e-01 2.44860530e-01
      2.44860530e-01 2.44860530e-01 6.96751624e-02 6.26158640e-02
      2.91817393e-02 4.21511158e-02 8.50281790e-02 2.44860530e-01
      2.44860530e-01 2.44860530e-01 1.91867515e-01 1.19539395e-01
      2.42461637e-01 8.55274796e-02 9.53018069e-02 2.44860530e-01
      2.03501940e-01 1.22343764e-01 8.97034332e-02 4.36994433e-02
      9.75744501e-02 2.33381033e-01 2.33381033e-01 2.22137377e-01
      2.33381033e-01 5.14092818e-02 2.30966713e-02 2.42037252e-02
      2.11227089e-02 8.72170776e-02 2.08189189e-01 2.33381033e-01
      1.94093406e-01 1.46549940e-01 1.88264996e-01 1.96648896e-01
      1.59641981e-01 9.89081189e-02 1.37524366e-01 2.28816941e-01
      1.31546855e-01 1.74711898e-01 2.33381033e-01 2.14851603e-01
      2.33381033e-01 1.84607282e-01 4.78489734e-02 7.54055530e-02
      1.35447755e-01 1.50319055e-01 1.78542063e-01 2.04547107e-01
      3.75085548e-02 5.44565804e-02 2.57598981e-02 3.00660469e-02
      5.37646003e-02 1.56409681e-01 2.48259261e-01 2.28405818e-01
      6.72969744e-02 6.39712140e-02 1.23219393e-01 1.04259066e-01
      1.24415748e-01 2.48259261e-01 2.15712816e-01 2.48259261e-01
      1.82183594e-01 5.77370375e-02 2.48259261e-01 2.48259261e-01
      2.48259261e-01 5.74907213e-02 4.45390865e-02 8.31236392e-02
      1.22832924e-01 1.44672051e-01 7.38169625e-02 2.28018850e-01
      2.48259261e-01 2.48259261e-01 1.95247322e-01 2.48259261e-01
      2.09338054e-01 1.59620434e-01 9.35643688e-02 4.81309518e-02
      1.13701381e-01 5.70026897e-02 1.29230872e-01 8.10926408e-02
      1.33322299e-01 2.33813718e-01 2.69698948e-01 1.98919669e-01
      1.76040903e-01 5.07399105e-02 4.32828479e-02 2.26830523e-02
      3.90987843e-02 1.51250422e-01 1.59862533e-01 2.69698948e-01
      2.69698948e-01 1.95047587e-01 7.74687454e-02 3.60318199e-02
      1.04560785e-01 8.97780582e-02 2.69698948e-01 1.34831294e-01
      2.08244532e-01 1.91699162e-01 1.26951620e-01 6.69676438e-02
      4.47061658e-02 2.94655059e-02 9.65924487e-02 2.69698948e-01
      1.62290424e-01 2.69698948e-01 2.69698948e-01 1.70277625e-01
      7.10149407e-02 8.21802393e-02 6.60216287e-02 9.19136107e-02
      8.67903158e-02 4.11731638e-02 1.23667575e-01 2.03112423e-01
      8.74945074e-02 2.48479530e-01 2.35587880e-01 2.48479530e-01
      2.48479530e-01 1.34387136e-01 2.49212757e-02 2.14396063e-02
      4.64159474e-02 9.33602825e-02 9.64860395e-02 1.16985068e-01
      1.44186765e-01 2.48479530e-01 2.48479530e-01 6.24989010e-02
      2.48479530e-01 2.48479530e-01 1.25487670e-01 2.48479530e-01
      2.16735810e-01 2.48479530e-01 2.48479530e-01 2.27113158e-01
      3.04219890e-02 3.86319980e-02 1.20079793e-01 1.33108720e-01
      2.55457640e-01 1.59831181e-01 2.55457640e-01 2.55457640e-01
      6.53649941e-02 4.75333817e-02 2.40334999e-02 5.59672415e-02
      2.55457640e-01 2.01229781e-01 1.33738518e-01 1.58466503e-01
      1.48175851e-01 1.62564561e-01 1.97282150e-01 7.67643973e-02
      1.13693386e-01 2.55457640e-01 2.55457640e-01 8.85826647e-02
      1.10999748e-01 1.63452715e-01 8.75247568e-02 3.21152024e-02
      2.30747182e-02 5.62923923e-02 2.55457640e-01 1.66352943e-01
      6.68720305e-02 5.79011068e-02 9.35944468e-02 2.55457640e-01
      2.55457640e-01 5.83140105e-02 1.11907907e-01 2.55457640e-01
      1.72060177e-01 2.23305762e-01 1.79820076e-01 1.43867627e-01
      1.91000402e-01 1.61986545e-01 9.03248042e-02 1.13574252e-01
      2.46650741e-01 2.68422306e-01 2.73000747e-01 2.73000747e-01
      1.03946500e-01 4.49157842e-02 4.04545180e-02 5.93935512e-02
      6.17146455e-02 1.04038686e-01 1.99353606e-01 1.47026777e-01
      1.20709687e-01 1.57896101e-01 2.73000747e-01 2.73000747e-01
      5.96264154e-02 8.61267745e-02 1.96072787e-01 1.98505342e-01
      2.05768317e-01 1.70136973e-01 1.04127832e-01 1.24073423e-01
      1.37921065e-01 4.33132201e-02 3.86300087e-02 8.81402045e-02
      3.06496412e-01 3.06496412e-01 3.06496412e-01 1.40040770e-01
      7.01013654e-02 4.42879908e-02 3.98623869e-02 4.40356880e-02
      6.64769560e-02 2.66536564e-01 3.06496412e-01 3.06496412e-01
      2.68864483e-01 1.87274769e-01 9.73214805e-02 1.73390973e-02
      6.58769207e-03 2.70045679e-02 2.11711079e-01 2.44765773e-01
      2.28381157e-01 1.36534512e-01 1.01984479e-01 3.66256237e-02
      4.17228416e-02 3.73532251e-02 6.31233975e-02 6.28295988e-02
      1.04451470e-01 1.51894510e-01 1.90955535e-01 1.84722260e-01
      2.91690081e-02 2.23978236e-03 2.77710776e-03 9.08306800e-03</_>
    <_>
      1.19403817e-01 6.20988570e-02 6.21925108e-02 2.34580394e-02
      7.26157948e-02 5.03115915e-02 4.44357730e-02 5.81906699e-02
      2.31174588e-01 1.72428191e-01 1.48292378e-01 1.05110854e-01
      9.50986296e-02 2.46877819e-01 1.64872631e-01 6.38854653e-02
      1.35358617e-01 3.00410032e-01 9.90694463e-02 1.25587776e-01
      3.14601034e-01 1.36064291e-01 1.38397858e-01 9.10010934e-02
      7.29428008e-02 8.01640749e-02 1.22583792e-01 3.16219449e-01
      3.16219449e-01 3.16219449e-01 1.92564666e-01 1.41647816e-01
      9.98727530e-02 5.37135154e-02 9.74956602e-02 2.41513520e-01
      1.06919080e-01 8.26282427e-02 6.91966936e-02 1.02908134e-01
      1.91302657e-01 9.86446813e-02 3.47542241e-02 8.72253254e-02
      9.92693603e-02 2.85550386e-01 1.54409498e-01 1.86740905e-01
      1.43393189e-01 1.80778787e-01 8.18429515e-02 1.21053986e-01
      1.30083904e-01 1.01875387e-01 2.85550386e-01 2.85550386e-01
      1.90924153e-01 8.14840496e-02 7.68918768e-02 5.72814830e-02
      3.75543572e-02 5.54654934e-02 1.86868146e-01 2.85550386e-01
      2.85550386e-01 2.29301840e-01 1.55979961e-01 1.14653461e-01
      7.49774575e-02 1.35609597e-01 2.07145736e-01 2.85550386e-01
      1.97140053e-01 1.35985643e-01 1.51115984e-01 1.13050029e-01
      1.52808055e-01 8.79462138e-02 1.47186309e-01 1.27654433e-01
      1.15983464e-01 1.77033082e-01 2.26301178e-01 2.14497283e-01
      1.17764369e-01 1.48059517e-01 1.76051721e-01 1.71061531e-01
      1.65963694e-01 2.26191238e-01 2.26301178e-01 2.26301178e-01
      2.14750633e-01 1.18537918e-01 1.08689614e-01 6.27936125e-02
      1.42177135e-01 1.57439798e-01 1.97045177e-01 2.26301178e-01
      2.26301178e-01 2.07232744e-01 6.88696727e-02 5.88201545e-02
      9.70496684e-02 1.38893470e-01 1.52581260e-01 2.26301178e-01
      2.21108720e-01 2.63837785e-01 2.63837785e-01 1.42602429e-01
      1.19160645e-01 1.22660704e-01 1.18121102e-01 8.08664560e-02
      2.02016219e-01 2.12657809e-01 2.63837785e-01 2.63837785e-01
      1.55776635e-01 2.06919476e-01 8.44846517e-02 7.82795697e-02
      7.56940842e-02 1.44782335e-01 1.85538113e-01 2.63837785e-01
      2.63837785e-01 1.00750342e-01 2.81764511e-02 3.63965556e-02
      5.02027608e-02 5.93786612e-02 1.32856041e-01 5.70489354e-02
      1.70305640e-01 2.63837785e-01 2.07102999e-01 2.10366309e-01
      5.99108376e-02 1.94311794e-02 3.98506075e-02 5.20261452e-02
      1.68483749e-01 2.94046611e-01 2.94046611e-01 2.59361267e-01
      2.77409405e-01 6.44234270e-02 4.02326658e-02 6.42663836e-02
      9.79390964e-02 8.81998390e-02 2.94046611e-01 2.94046611e-01
      2.80873239e-01 1.39308199e-01 4.60506603e-02 3.20509262e-02
      1.71227660e-02 5.14217354e-02 2.38634143e-02 1.39377907e-01
      2.69598275e-01 2.48721033e-01 2.94046611e-01 1.65869355e-01
      5.85976467e-02 3.66610326e-02 3.32612023e-02 2.45518759e-02
      1.01920292e-01 1.02658160e-01 1.11431718e-01 1.36531785e-01
      1.13069572e-01 7.75491819e-02 2.71636918e-02 2.04907563e-02
      5.07299565e-02 1.23848669e-01 3.50274175e-01 1.33454472e-01
      8.07357207e-02 5.36643267e-02 2.82693859e-02 2.99986787e-02
      3.49363238e-02 1.31634340e-01 3.50274175e-01 3.50274175e-01
      1.42998010e-01 3.75189781e-02 1.55613385e-02 1.41620506e-02
      2.73824148e-02 6.94237947e-02 1.09672584e-01 1.64142400e-01
      3.50274175e-01 3.50274175e-01 1.01686917e-01 8.51087272e-02
      7.91465640e-02 4.21326011e-02 5.83381504e-02 5.90825863e-02
      2.12134138e-01 3.50274175e-01 2.09334925e-01 5.28491177e-02
      2.60566641e-02 2.52288766e-02 1.98353305e-02 4.79640029e-02
      3.46943736e-01 3.46943736e-01 3.46943736e-01 8.98026451e-02
      2.38425825e-02 3.16450186e-02 4.40418273e-02 4.45904694e-02
      2.47500807e-01 3.46943736e-01 3.46943736e-01 1.24166653e-01
      7.61264190e-02 3.74698155e-02 6.33827671e-02 7.70328864e-02
      1.40172929e-01 3.46943736e-01 8.83216336e-02 1.72763780e-01
      2.65563846e-01 6.20718300e-02 2.02793591e-02 2.48235222e-02
      4.64626886e-02 3.97973955e-02 8.50308314e-02 6.12573624e-02
      4.90423143e-02 4.90724184e-02 2.36091986e-02 3.51687148e-02
      5.37625290e-02 4.37265188e-02 4.74717654e-02 7.63994604e-02
      2.67387092e-01 2.10567862e-01 1.46809533e-01 8.76354575e-02
      6.03609569e-02 5.04965074e-02 7.80861229e-02 1.34357542e-01
      2.45930567e-01 2.67387092e-01 2.67387092e-01 1.06940366e-01
      6.81926608e-02 5.38734980e-02 4.14055176e-02 8.45237598e-02
      1.33982703e-01 2.67387092e-01 1.19476445e-01 6.65107220e-02
      6.41934574e-02 1.15147777e-01 2.19863117e-01 1.28299028e-01
      3.93079966e-02 7.59793967e-02 1.19380891e-01 2.67387092e-01
      1.14449747e-01 5.89514412e-02 1.90252453e-01 2.67387092e-01
      2.15696618e-01 1.54567942e-01 2.02551201e-01 2.67387092e-01
      2.42980391e-01 1.75802246e-01 9.92880240e-02 9.73580927e-02
      3.08557618e-02 3.07991784e-02 7.10453019e-02 9.39165652e-02
      1.89779460e-01 2.70431675e-02 5.29561043e-02 2.57990360e-01
      2.57990360e-01 1.54442444e-01 1.54535666e-01 7.98689127e-02
      4.36520353e-02 3.40094827e-02 2.57990360e-01 5.09351231e-02
      5.03241010e-02 1.38184473e-01 1.21617183e-01 1.70783535e-01
      2.57990360e-01 2.57177442e-01 2.57990360e-01 4.26880009e-02
      5.72284721e-02 1.79100469e-01 2.57990360e-01 1.79441750e-01
      2.57990360e-01 2.57990360e-01 1.87567279e-01 6.55495897e-02
      3.71985021e-03 2.83107478e-02 2.50189036e-01 2.50189036e-01
      2.43386939e-01 2.50189036e-01 1.00320056e-01 6.39218092e-02
      3.68569009e-02 3.00250724e-02 3.05670071e-02 3.57480161e-02
      5.86455837e-02 1.38293684e-01 2.26548240e-01 1.05181232e-01
      1.14584342e-01 7.74894357e-02 3.53960246e-02 5.77755570e-02
      1.38732761e-01 2.50189036e-01 2.13726535e-01 2.50189036e-01
      2.50189036e-01 2.50189036e-01 6.73843175e-02 1.06506824e-01
      6.33348599e-02 6.41108900e-02 4.91207689e-02 1.73964217e-01
      2.50189036e-01 2.50189036e-01 2.50189036e-01 2.50189036e-01
      2.24091604e-01 1.50332183e-01 2.89065003e-01 2.89065003e-01
      1.30012646e-01 1.07321918e-01 1.82426512e-01 1.16828486e-01
      1.86848819e-01 4.68220823e-02 8.85474235e-02 2.89065003e-01
      1.81544706e-01 5.96331693e-02 4.70386781e-02 3.53051610e-02
      2.03123596e-02 4.71754931e-02 2.33700156e-01 1.20356537e-01
      1.32392526e-01 1.34004399e-01 1.44730464e-01 2.24290863e-01
      2.89065003e-01 2.89065003e-01 2.89065003e-01 7.89456442e-02
      1.11137606e-01 1.11265421e-01 5.51424101e-02 6.93579242e-02
      1.36892170e-01 9.81895104e-02 8.47541317e-02 9.90828350e-02
      5.73420636e-02 6.52171522e-02 7.05205873e-02 4.59505208e-02
      4.60498258e-02 4.88584377e-02 6.01229370e-02 5.60689680e-02
      7.18101859e-02 7.43588358e-02 7.19254464e-02 4.45435978e-02
      2.84824278e-02 9.23738331e-02 1.21664204e-01 5.43426946e-02
      8.69130492e-02 1.07997604e-01 3.31037343e-01 3.39211196e-01
      2.71051526e-01 6.22908548e-02 6.24341331e-02 5.95213063e-02
      8.93090293e-02 1.34257630e-01 2.58781612e-01 3.39211196e-01
      3.39211196e-01 2.30342284e-01 1.14861883e-01 7.14283958e-02
      1.04434825e-01 1.28976151e-01 2.45076358e-01 3.39211196e-01
      8.55310932e-02 7.71355554e-02 4.35421877e-02 5.28782792e-02
      1.23105936e-01 1.13408841e-01 3.10880877e-02 5.51862754e-02
      9.47197452e-02 1.87866628e-01 1.53034300e-01 1.21101134e-01
      1.26847416e-01 2.26681590e-01 2.36589983e-01 1.54850513e-01
      1.37183160e-01 2.36589983e-01 2.36589983e-01 2.36589983e-01
      1.45609871e-01 1.02615140e-01 1.71335801e-01 1.44073501e-01
      8.51064026e-02 9.80453268e-02 2.02151701e-01 2.36589983e-01
      2.36589983e-01 2.36589983e-01 1.81793764e-01 2.36589983e-01
      2.36589983e-01 2.06687972e-01 1.24471076e-01 1.42912686e-01
      9.88304093e-02 8.07467327e-02 1.00177847e-01 1.39391884e-01
      1.75607577e-01 2.35574350e-01 2.35574350e-01 1.72476754e-01
      1.62595361e-01 3.69628407e-02 4.04504687e-02 9.08324644e-02
      1.80834040e-01 1.70366496e-01 2.35574350e-01 2.35574350e-01
      2.35574350e-01 6.63696378e-02 1.76310837e-01 2.12385714e-01
      1.67743549e-01 1.06759973e-01 1.92103609e-01 2.06235990e-01
      2.35574350e-01 1.42572626e-01 1.08359240e-01 1.07809633e-01
      5.77272773e-02 4.13416773e-02 4.00924981e-02 7.30928853e-02
      1.97314531e-01 2.35574350e-01 2.35574350e-01 2.31820956e-01
      5.13110869e-02 5.90428039e-02 7.39434212e-02 1.11950696e-01
      1.73363492e-01 2.47411996e-01 2.47411996e-01 2.38599792e-01
      6.76410571e-02 1.16251320e-01 5.95256500e-02 1.04775682e-01
      2.59727724e-02 1.80604324e-01 2.47411996e-01 2.47411996e-01
      2.47411996e-01 2.34103948e-01 5.73861189e-02 4.29611243e-02
      2.56656744e-02 4.29515690e-02 9.44528133e-02 2.47411996e-01
      2.47411996e-01 2.47411996e-01 1.53878123e-01 1.08452179e-01
      6.50759563e-02 6.21636771e-02 3.64045240e-02 1.37165844e-01
      2.47411996e-01 2.47411996e-01 2.47411996e-01 1.10147528e-01
      2.51923621e-01 1.67030767e-01 1.56586871e-01 7.82290995e-02
      1.87929764e-01 2.51923621e-01 2.51923621e-01 2.51923621e-01
      2.51923621e-01 1.72896281e-01 1.72228426e-01 1.78599849e-01
      7.65008181e-02 1.22226857e-01 2.25945026e-01 1.06490813e-01
      8.66911858e-02 8.90317708e-02 2.17396304e-01 1.75674364e-01
      1.78403690e-01 8.65406990e-02 7.18932822e-02 8.51928592e-02
      1.08165041e-01 1.49746835e-01 1.92844272e-01 1.41380697e-01
      1.26765564e-01 1.34051681e-01 7.73636550e-02 2.34324157e-01
      2.51923621e-01 9.91126448e-02 5.10331839e-02 6.50134459e-02
      2.50025272e-01 2.52273172e-01 2.33227044e-01 8.21422860e-02
      7.76405632e-02 7.11290911e-02 2.88815815e-02 3.94463949e-02
      9.57017019e-02 2.52273172e-01 2.52273172e-01 1.96499527e-01
      1.11157425e-01 4.62979339e-02 3.05764955e-02 4.57606055e-02
      6.76721260e-02 2.14261338e-01 1.54108927e-01 1.76041782e-01
      1.87897354e-01 9.68419835e-02 2.52273172e-01 2.52273172e-01
      1.03913188e-01 9.09793228e-02 1.00066900e-01 1.95030183e-01
      2.19554350e-01 2.06600890e-01 1.77860662e-01 2.08915174e-01
      1.77112103e-01 9.36774909e-02 1.41119152e-01 1.83234304e-01
      2.69682735e-01 2.08823800e-01 8.75723585e-02 1.03729501e-01
      2.69682735e-01 1.70033529e-01 8.74764398e-02 6.65431321e-02
      1.31039724e-01 9.59555283e-02 1.10987365e-01 9.72373486e-02
      1.30668133e-01 2.69682735e-01 2.69682735e-01 1.64518446e-01
      9.07892510e-02 6.63494691e-02 9.62110758e-02 9.73021612e-02
      7.83690289e-02 2.21095935e-01 2.69682735e-01 2.21771657e-01
      7.17687085e-02 8.83341059e-02 8.15602392e-02 1.02708623e-01
      6.03515059e-02 7.47762173e-02 2.58654743e-01 2.69682735e-01
      2.69682735e-01 1.41980708e-01 1.40077710e-01 1.05995975e-01
      1.56535506e-01 1.00915454e-01 6.86942339e-02 6.16218448e-02
      2.20127299e-01 2.20127299e-01 2.03899592e-01 1.47614762e-01
      1.50580421e-01 1.54928342e-01 6.12598062e-02 1.49394525e-02
      1.18988687e-02 3.54745835e-02 2.09366798e-01 2.17247605e-01
      2.20127299e-01 2.20127299e-01 1.84296936e-01 5.38229682e-02
      5.10788597e-02 1.13426164e-01 2.20127299e-01 2.20127299e-01
      2.20127299e-01 2.20127299e-01 2.20127299e-01 1.67719409e-01
      2.06890285e-01 9.23734978e-02 6.52930066e-02 5.37262000e-02
      2.20127299e-01 2.00434029e-01 1.89748198e-01 2.20127299e-01
      6.35670647e-02 4.15825881e-02 3.77097838e-02 2.46827416e-02
      7.17772841e-02 2.39626393e-01 1.96155936e-01 1.59401178e-01
      7.89667368e-02 1.53873757e-01 1.44764140e-01 1.16038859e-01
      5.33878617e-02 7.89740384e-02 1.20856196e-01 1.79218099e-01
      1.97744906e-01 8.74905735e-02 1.26237690e-01 2.13761032e-01
      2.30905458e-01 1.82884291e-01 1.29409865e-01 2.39626393e-01
      1.75674409e-01 7.91305080e-02 7.65272826e-02 2.39626393e-01
      2.39626393e-01 2.39626393e-01 2.39626393e-01 1.69589967e-01
      1.72675982e-01 2.39626393e-01 2.39626393e-01 1.66724250e-01
      8.70298445e-02 1.00381710e-01 1.78402513e-01 1.57146469e-01
      8.05997550e-02 4.06156965e-02 4.32027839e-02 3.39990035e-02
      7.77948722e-02 9.67125371e-02 7.60698840e-02 1.22911528e-01
      9.37450677e-02 2.26749092e-01 2.39713237e-01 2.26606816e-01
      1.49730578e-01 1.30094171e-01 1.16917752e-01 1.75562158e-01
      1.67894885e-01 2.34030291e-01 2.39713237e-01 1.00383125e-01
      6.73862621e-02 4.44091447e-02 6.28792048e-02 2.39713237e-01
      2.39713237e-01 1.92765608e-01 2.31069550e-01 2.39713237e-01
      2.07881257e-01 2.04001293e-01 2.38566756e-01 2.39713237e-01
      5.45809790e-02 2.27159280e-02 3.04418616e-02 2.02046819e-02
      1.17844082e-01 2.62599051e-01 1.34685606e-01 1.98585778e-01
      2.08531603e-01 1.39261916e-01 5.12871109e-02 6.41473532e-02
      7.56359771e-02 1.13410875e-01 1.30457878e-01 8.72404575e-02
      2.50874907e-01 2.91951746e-01 2.91951746e-01 1.14310056e-01
      6.18903115e-02 7.42886215e-02 8.81299973e-02 9.64501947e-02
      9.68160555e-02 1.96061015e-01 2.91951746e-01 2.91951746e-01
      2.09993869e-01 1.06517114e-01 8.45420733e-02 8.22157338e-02
      8.60430673e-02 8.28697532e-02 2.80991107e-01 2.91951746e-01
      1.15224637e-01 1.33531928e-01 1.75299689e-01 1.92483827e-01
      1.51278749e-01 1.26005083e-01 3.89635079e-02 8.16368461e-02
      2.37648532e-01 1.34843528e-01 1.53122738e-01 2.44133711e-01
      2.27938443e-01 1.68739006e-01 1.49004847e-01 8.59809145e-02
      1.39957100e-01 1.96059495e-01 2.44133711e-01 2.44133711e-01
      2.44133711e-01 1.62855148e-01 8.63060653e-02 6.01897463e-02
      6.17919303e-02 1.16607152e-01 2.44133711e-01 1.89602450e-01
      2.44133711e-01 2.44133711e-01 1.48243934e-01 5.55038713e-02
      2.54906937e-02 6.41575977e-02 1.02424830e-01 1.92585856e-01
      2.26980820e-01 1.59441754e-01 1.10940397e-01 8.15328807e-02
      8.17552134e-02 1.02291472e-01 1.78355917e-01 2.46659145e-01
      2.46659145e-01 2.43973643e-01 2.46659145e-01 2.11962312e-01
      4.57377397e-02 3.48176174e-02 7.84913749e-02 1.04009114e-01
      1.45390242e-01 2.46659145e-01 2.46659145e-01 2.03818843e-01
      1.29315659e-01 4.67010997e-02 2.53985338e-02 2.90256273e-02
      8.11746791e-02 1.73303708e-01 2.46659145e-01 2.46659145e-01
      2.46659145e-01 1.95486993e-01 3.36063989e-02 4.58514653e-02
      5.38921990e-02 5.61892465e-02 1.14782766e-01 2.46659145e-01
      1.43638283e-01 2.53518522e-01 2.53518522e-01 1.57150015e-01
      8.22960213e-02 8.89715180e-02 5.87273054e-02 5.14407195e-02
      1.47264451e-01 1.67906269e-01 2.53518522e-01 2.53518522e-01
      2.23739728e-01 1.33890316e-01 1.39543623e-01 2.53518522e-01
      1.99130192e-01 1.09775789e-01 1.40196592e-01 2.53518522e-01
      2.53518522e-01 5.11255451e-02 7.06618652e-02 5.65091074e-02
      5.21986112e-02 5.81130534e-02 1.74879417e-01 1.70074612e-01
      2.53518522e-01 2.50719219e-01 1.08950667e-01 1.29216373e-01
      8.56087431e-02 1.11283667e-01 7.28845075e-02 1.24990314e-01</_>
    <_>
      1.91159368e-01 3.10342640e-01 3.10342640e-01 1.83093473e-01
      4.65551540e-02 5.33409342e-02 2.76176631e-02 2.66690720e-02
      8.48585814e-02 3.10342640e-01 2.81985879e-01 3.10342640e-01
      1.65601537e-01 4.42080013e-02 1.99818797e-02 2.17870772e-02
      1.49346776e-02 3.10342640e-01 1.80651888e-01 3.10342640e-01
      3.10342640e-01 1.02046050e-01 2.85133086e-02 4.56008762e-02
      2.49160547e-02 4.02256399e-02 7.50604421e-02 7.78338537e-02
      1.14311732e-01 2.02719763e-01 9.37430412e-02 4.51338626e-02
      1.93412956e-02 2.03577913e-02 1.74977686e-02 5.48926443e-02
      3.84623349e-01 3.84623349e-01 1.36260018e-01 5.03622815e-02
      3.85295525e-02 1.59495436e-02 1.74093917e-02 3.30194905e-02
      3.84623349e-01 3.84623349e-01 3.84623349e-01 1.49964944e-01
      9.82562751e-02 1.29199862e-01 7.84785375e-02 4.24776636e-02
      5.31362519e-02 2.90643483e-01 9.86068174e-02 4.94635664e-02
      4.99973670e-02 3.98940407e-02 8.41902196e-02 2.93529686e-02
      2.12424770e-02 3.05129215e-02 9.11357999e-02 7.25912154e-02
      4.18887436e-02 4.13696170e-02 7.81114623e-02 1.56426087e-01
      1.02410920e-01 3.27757262e-02 3.62607986e-02 4.54729833e-02
      1.35090172e-01 2.36409143e-01 1.40095398e-01 1.04075924e-01
      1.95459947e-01 1.42674759e-01 1.53951585e-01 1.04580678e-01
      8.35585445e-02 2.36409143e-01 2.36409143e-01 1.65982157e-01
      9.75982323e-02 1.69462442e-01 1.18316956e-01 2.22934902e-01
      2.36409143e-01 2.36409143e-01 4.30762656e-02 8.75675306e-02
      5.99099472e-02 7.37577677e-02 1.90310419e-01 8.97378922e-02
      1.14132009e-01 1.02469586e-01 5.19991517e-02 1.71886981e-01
      2.36409143e-01 9.56204236e-02 1.04273655e-01 2.33536169e-01
      1.51982427e-01 2.36409143e-01 2.36409143e-01 2.36409143e-01
      2.42314100e-01 1.34402946e-01 5.53161763e-02 3.10529545e-02
      3.75636108e-02 3.83876674e-02 9.45594534e-02 2.00222597e-01
      2.42314100e-01 2.15896562e-01 4.03539874e-02 4.72156629e-02
      3.47526260e-02 5.37387580e-02 1.12540185e-01 1.75809309e-01
      2.41110533e-01 2.42314100e-01 2.02169552e-01 1.53766379e-01
      1.09521732e-01 7.87376016e-02 8.89892131e-02 1.26298770e-01
      1.60860837e-01 2.42314100e-01 2.42314100e-01 1.82867557e-01
      1.05209500e-01 2.42314100e-01 1.07572205e-01 8.78877118e-02
      2.33686119e-01 2.16101319e-01 2.42314100e-01 2.42314100e-01
      2.00152263e-01 6.00000285e-02 5.39211333e-02 3.50285023e-02
      6.80497810e-02 1.35504037e-01 2.28050023e-01 2.32136533e-01
      2.32136533e-01 2.32136533e-01 1.80474773e-01 9.33560729e-02
      2.64602974e-02 9.52922404e-02 1.71452940e-01 2.32136533e-01
      2.32136533e-01 2.32136533e-01 1.29213572e-01 7.86434337e-02
      1.84612319e-01 8.28102529e-02 8.63893703e-02 2.04459742e-01
      2.32136533e-01 2.32136533e-01 1.54492453e-01 1.15414724e-01
      1.07631370e-01 9.22511965e-02 5.96705116e-02 9.09821391e-02
      1.46582499e-01 2.27713227e-01 2.32136533e-01 2.32136533e-01
      2.98856139e-01 2.98856139e-01 2.97034949e-01 1.74067169e-01
      2.57769018e-01 2.98856139e-01 1.58009008e-01 2.36087635e-01
      2.65997052e-01 1.38817847e-01 1.58650652e-01 1.35924593e-01
      1.16150640e-01 2.67626792e-01 1.82019874e-01 1.21503241e-01
      8.91746953e-02 7.36307204e-02 7.08709657e-02 1.16265647e-01
      1.05734162e-01 9.22524631e-02 1.46076411e-01 9.14595351e-02
      1.10956728e-01 1.04948208e-01 9.10124034e-02 5.26962578e-02
      7.49404058e-02 1.39115408e-01 1.10537708e-01 1.47028118e-01
      1.05750293e-01 7.42778033e-02 5.48146069e-02 5.00763170e-02
      3.25039886e-02 4.82533164e-02 9.20498520e-02 1.69883177e-01
      2.84314185e-01 1.82533264e-01 9.70776901e-02 5.03420979e-02
      2.41979137e-02 5.29740229e-02 9.11132544e-02 1.27695873e-01
      2.84314185e-01 2.84314185e-01 2.84314185e-01 7.96681195e-02
      6.46271557e-02 2.04700269e-02 2.20851544e-02 8.17219168e-02
      1.38487637e-01 1.75976485e-01 2.84314185e-01 1.99666768e-01
      8.79002959e-02 8.07352066e-02 2.26779561e-02 5.81628382e-02
      2.02004001e-01 1.97959647e-01 2.84314185e-01 2.84314185e-01
      2.84314185e-01 1.18223630e-01 1.21305451e-01 3.92178148e-02
      2.79327296e-02 8.04503784e-02 7.24978596e-02 1.30511150e-01
      2.37393647e-01 1.25008523e-01 1.01537518e-01 9.84456986e-02
      3.36243063e-02 8.90878290e-02 2.66795576e-01 1.41863823e-01
      1.62936077e-01 2.66795576e-01 2.50707626e-01 2.66795576e-01
      2.66795576e-01 2.66795576e-01 5.86462915e-02 1.04025275e-01
      8.17258880e-02 1.38163760e-01 1.74827069e-01 8.65471289e-02
      4.08576727e-02 4.21776250e-02 1.53396688e-02 1.23827867e-01
      2.66795576e-01 2.66795576e-01 2.66795576e-01 2.24780545e-01
      9.53177214e-02 1.21230699e-01 1.12628862e-01 6.06555231e-02
      1.58925265e-01 1.97953507e-01 1.32088050e-01 1.20222501e-01
      1.04488894e-01 9.13269147e-02 1.01766758e-01 2.39679247e-01
      2.39679247e-01 2.10185200e-01 2.02674419e-01 2.39679247e-01
      1.67031080e-01 9.28346589e-02 1.11029327e-01 6.41128793e-02
      1.71930477e-01 2.39679247e-01 1.58201858e-01 2.39679247e-01
      2.39679247e-01 2.30009854e-01 6.21227250e-02 3.82474400e-02
      5.46996780e-02 7.58394897e-02 1.48585439e-01 2.39679247e-01
      2.39679247e-01 1.71921998e-01 1.22078247e-01 5.00387251e-02
      3.59476469e-02 6.93327561e-02 1.40432432e-01 2.39679247e-01
      1.41667843e-01 1.25754476e-01 1.76677480e-01 9.89848226e-02
      7.17945546e-02 7.35704526e-02 9.60821137e-02 1.25022024e-01
      1.23250104e-01 1.58918545e-01 1.42696083e-01 2.06352144e-01
      1.58920929e-01 1.78172573e-01 6.53159246e-02 1.97531819e-01
      2.46415660e-01 2.11494997e-01 2.46415660e-01 1.35986641e-01
      9.64917243e-02 7.63169080e-02 3.76949795e-02 4.13233973e-02
      1.51028708e-01 1.50543973e-01 2.46415660e-01 2.46415660e-01
      1.19353890e-01 2.35599980e-01 1.29325613e-01 1.77969366e-01
      1.06681071e-01 2.46415660e-01 2.46415660e-01 2.46415660e-01
      1.01457350e-01 1.23765700e-01 1.28622249e-01 6.71471804e-02
      1.52785733e-01 8.21704865e-02 2.35438883e-01 1.39189973e-01
      1.00793280e-01 1.13281906e-01 1.73289299e-01 2.41591081e-01
      8.16020593e-02 2.41591081e-01 6.75444156e-02 1.12639338e-01
      1.17496632e-01 9.63130742e-02 2.33799592e-01 2.13723361e-01
      1.57538921e-01 1.29470062e-02 1.09957218e-01 5.39742894e-02
      2.22245753e-01 2.06491232e-01 2.41591081e-01 1.75435618e-01
      2.22175553e-01 2.23383039e-01 3.88704538e-02 2.26049602e-01
      1.48935899e-01 2.41591081e-01 1.84540153e-01 2.03215539e-01
      3.72921377e-02 8.02022964e-02 1.16215050e-01 9.34230611e-02
      2.77785212e-01 1.14780508e-01 5.44481128e-02 6.89671263e-02
      3.61135416e-02 7.26192892e-02 1.47073954e-01 1.58384904e-01
      2.80632824e-01 2.80632824e-01 2.80632824e-01 1.82350799e-01
      1.53295472e-01 6.82154968e-02 6.09495863e-02 8.37145671e-02
      1.59989491e-01 1.20630376e-01 1.84952796e-01 1.11673765e-01
      1.18611470e-01 4.33692262e-02 4.41854261e-02 1.25100315e-01
      1.13691226e-01 2.75252283e-01 2.80632824e-01 2.80632824e-01
      2.80632824e-01 2.09222659e-01 1.14488870e-01 7.19548911e-02
      5.09235263e-02 5.40663525e-02 6.49819076e-02 1.34455189e-01
      2.17028350e-01 6.70684427e-02 3.04055102e-02 2.44958643e-02
      1.79592688e-02 9.47089642e-02 1.30264789e-01 3.07438284e-01
      3.07438284e-01 3.07438284e-01 9.37750861e-02 4.85923924e-02
      1.92087665e-02 2.50704791e-02 7.39674270e-02 2.97439545e-02
      5.92289641e-02 1.22349910e-01 3.07438284e-01 1.25447541e-01
      7.89995492e-02 5.03340736e-02 3.59343961e-02 1.00176036e-01
      5.63042574e-02 2.01139361e-01 3.07438284e-01 3.07438284e-01
      3.07438284e-01 3.07438284e-01 1.07754603e-01 7.42756203e-02
      5.55239879e-02 9.44670960e-02 2.47400329e-01 2.47400329e-01
      1.06348574e-01 7.30453283e-02 7.38204718e-02 3.66179086e-02
      6.22574463e-02 1.59161240e-01 1.18822917e-01 1.17159292e-01
      9.60114673e-02 1.08040415e-01 2.38333553e-01 2.00139135e-01
      1.08955763e-01 2.30851531e-01 2.14258023e-02 3.14391963e-02
      1.07223712e-01 2.47400329e-01 2.47400329e-01 2.47400329e-01
      1.98566705e-01 5.99894151e-02 4.23284583e-02 8.17742422e-02
      1.53091267e-01 2.47400329e-01 2.47400329e-01 2.47400329e-01
      2.47400329e-01 2.34040275e-01 1.29314035e-01 1.08954154e-01
      1.69779077e-01 7.07057118e-02 9.87936482e-02 6.81982785e-02
      1.04907885e-01 1.60441980e-01 1.70181811e-01 8.03234503e-02
      1.78800777e-01 1.72140107e-01 4.57213111e-02 1.83594853e-01
      1.74060270e-01 1.77028194e-01 8.47935602e-02 1.40537784e-01
      1.56890392e-01 1.73782304e-01 1.19210832e-01 1.53413028e-01
      2.31091574e-01 2.05347553e-01 2.12508276e-01 2.31091574e-01
      2.04241499e-01 1.74485102e-01 9.29971114e-02 2.31091574e-01
      1.74795032e-01 2.04359397e-01 2.31091574e-01 2.31091574e-01
      1.18833825e-01 1.59745201e-01 1.88616633e-01 1.26774564e-01
      2.05207363e-01 1.69152811e-01 9.95582268e-02 1.52605819e-02
      4.41532098e-02 3.55344936e-02 6.86542094e-02 1.30724967e-01
      2.59041399e-01 1.46788120e-01 1.77131087e-01 1.96814135e-01
      5.36779501e-02 1.08548515e-01 1.15847342e-01 1.61729410e-01
      9.05625895e-02 1.92834735e-01 2.59041399e-01 2.47912973e-01
      9.95729789e-02 2.70376895e-02 6.93581700e-02 5.14934845e-02
      1.56185493e-01 1.81001753e-01 2.59041399e-01 2.59041399e-01
      2.58363605e-01 1.41005754e-01 4.83669043e-02 1.82522371e-01
      1.16718993e-01 2.59041399e-01 1.58091560e-01 2.59041399e-01
      8.24287534e-02 1.03921674e-01 1.82453975e-01 1.18575536e-01
      1.18608177e-01 1.06295995e-01 1.41921625e-01 4.65084240e-02
      6.91317320e-02 1.17820770e-01 2.07242623e-01 2.32194588e-01
      2.32194588e-01 2.32194588e-01 2.17026517e-01 1.84598044e-01
      1.20217443e-01 1.17606930e-01 1.62789017e-01 1.26107797e-01
      1.24586686e-01 7.50322118e-02 1.67047426e-01 8.33813325e-02
      1.72220632e-01 1.17204964e-01 1.93973750e-01 1.53726548e-01
      2.32194588e-01 2.32194588e-01 1.47137478e-01 2.32194588e-01
      1.42257974e-01 2.32194588e-01 2.23986059e-01 2.03640059e-01
      6.37677237e-02 3.95203084e-02 6.16797395e-02 5.39831035e-02
      1.32456705e-01 7.87658095e-02 5.64196594e-02 4.39078361e-02
      3.93807888e-02 8.95700753e-02 3.67613919e-02 4.40363623e-02
      1.86672360e-01 3.52084875e-01 3.52084875e-01 3.28374088e-01
      9.52839628e-02 7.11551756e-02 2.94632073e-02 5.62920421e-02
      5.13918065e-02 4.65484262e-02 8.18678960e-02 5.19464910e-02
      3.53023373e-02 3.99508774e-02 3.49866487e-02 2.20519304e-02
      6.70945495e-02 3.52084875e-01 3.52084875e-01 3.52084875e-01
      3.52084875e-01 1.07826725e-01 4.73926067e-02 2.52602585e-02
      3.10818627e-02 2.50464268e-02 3.52388173e-02 1.99567795e-01
      2.47944385e-01 2.47944385e-01 1.10983402e-01 3.51455100e-02
      2.44575050e-02 1.83102176e-01 1.14399053e-01 1.52017936e-01
      2.47944385e-01 1.79566160e-01 2.04386637e-01 6.80721700e-02
      1.41080528e-01 1.37617707e-01 6.73643798e-02 6.66233301e-02
      2.12966174e-01 2.47944385e-01 2.47944385e-01 2.47944385e-01
      6.81050122e-02 3.76149565e-02 2.92650629e-02 2.47944385e-01
      1.16678894e-01 1.22828029e-01 2.27404460e-01 2.12357327e-01
      9.53042284e-02 6.61149397e-02 2.47944385e-01 2.47944385e-01
      1.57605544e-01 1.04065180e-01 1.17306083e-01 1.39400125e-01
      8.35820436e-02 1.65756762e-01 9.39834937e-02 2.47275159e-01
      1.87461600e-01 2.32989624e-01 1.74595505e-01 1.54719740e-01
      2.78713852e-01 1.24676868e-01 1.22707330e-01 8.91995355e-02
      1.92127153e-01 1.59203947e-01 2.20251262e-01 6.30017966e-02
      4.21181433e-02 5.55142686e-02 3.03096939e-02 7.11651146e-02
      8.97750556e-02 2.80147582e-01 2.80147582e-01 1.80775061e-01
      1.19043142e-01 1.26947120e-01 1.54482096e-01 4.01989035e-02
      1.09584764e-01 1.25651345e-01 2.80147582e-01 2.80147582e-01
      1.48508966e-01 8.27782899e-02 4.94203679e-02 3.83061543e-02
      6.21325783e-02 4.48195003e-02 1.63411140e-01 1.31847426e-01
      1.55097529e-01 1.27210796e-01 7.08351210e-02 4.12648618e-02
      5.63339181e-02 9.91408899e-02 6.83433786e-02 1.60684004e-01
      1.37274444e-01 1.71050504e-01 1.26727805e-01 1.16749600e-01
      7.75997937e-02 1.01692043e-01 3.11929852e-01 1.83619648e-01
      3.12547058e-01 3.12547058e-01 3.09012622e-01 1.68689921e-01
      1.01936340e-01 6.94928020e-02 9.80246514e-02 2.73891211e-01
      8.58251452e-02 2.45451778e-01 2.64908344e-01 2.03788921e-01
      8.36727470e-02 5.77339008e-02 9.18111876e-02 5.52216023e-02
      6.47476390e-02 5.17645665e-02 7.86732510e-02 8.96169692e-02
      1.23262577e-01 1.26624480e-01 1.41351223e-01 9.77496654e-02
      5.32781743e-02 6.57210723e-02 6.29505292e-02 9.09959823e-02
      1.26876056e-01 1.51733503e-01 2.10537210e-01 1.38424173e-01
      1.35331720e-01 5.58933802e-02 2.67468750e-01 6.12221025e-02
      1.92047656e-01 2.74513364e-01 2.74513364e-01 2.74513364e-01
      2.74513364e-01 1.39868110e-01 1.66888922e-01 2.74513364e-01
      1.70373648e-01 1.84461474e-01 2.74513364e-01 2.74513364e-01
      6.74580783e-02 3.98318209e-02 1.53344376e-02 1.49060087e-02
      3.84813324e-02 2.85662971e-02 2.74349954e-02 2.76855975e-02
      4.90667559e-02 8.73511061e-02 9.76106152e-02 2.53488690e-01
      2.05116987e-01 2.53488690e-01 1.87857911e-01 4.41742241e-02
      1.17733255e-01 7.58044720e-02 2.36852899e-01 1.91857979e-01
      7.04260990e-02 1.34101197e-01 2.53488690e-01 1.34814963e-01
      5.85443564e-02 1.22187994e-01 2.11673647e-01 2.53488690e-01
      2.53488690e-01 2.53488690e-01 2.08150938e-01 2.53488690e-01
      2.12710932e-01 6.70598298e-02 2.53488690e-01 2.53488690e-01
      8.61917436e-02 1.57157555e-01 2.54082143e-01 2.54082143e-01
      2.54082143e-01 2.14874431e-01 4.97361310e-02 1.29038990e-01
      6.09623305e-02 1.81367680e-01 1.22795768e-01 1.61332384e-01
      2.54082143e-01 1.89339161e-01 5.74658774e-02 5.78779690e-02
      1.94995195e-01 1.70169041e-01 1.19502924e-01 1.80353895e-01
      2.54082143e-01 2.28712723e-01 2.54082143e-01 1.43460110e-01
      4.90996651e-02 2.54082143e-01 1.65231228e-01 6.78799152e-02
      1.11207634e-01 1.34593666e-01 1.77392051e-01 1.42297432e-01
      5.47305606e-02 3.58024426e-02 9.98350903e-02 1.02331802e-01
      1.63892701e-01 7.46746957e-02 4.34961319e-02 6.37232736e-02
      4.49513718e-02 6.94505647e-02 1.62082732e-01 3.26137394e-01
      3.26137394e-01 3.10341686e-01 1.49645582e-01 1.11360244e-01
      1.65276214e-01 4.84320149e-02 1.41318262e-01 2.82513231e-01
      3.26137394e-01 3.26137394e-01 6.15043975e-02 8.08221102e-02
      6.22977167e-02 1.01795323e-01 1.46559209e-01 1.02921642e-01
      5.55480011e-02 9.79340598e-02 1.38701975e-01 7.87441432e-02
      6.99248090e-02 8.72728676e-02 1.83724076e-01 1.95349723e-01
      1.90973863e-01 8.80380347e-02 8.54476541e-02 9.23568159e-02</_>
    <_>
      3.41943949e-02 3.51949260e-02 1.23873577e-02 9.72976722e-03
      2.36446597e-02 1.16930092e-02 1.11525692e-02 1.26112085e-02
      3.49314921e-02 6.91823289e-02 5.07380515e-02 1.57526378e-02
      1.55968517e-02 2.10504103e-02 1.41893914e-02 3.79548222e-02
      4.38068174e-02 8.71081501e-02 2.87051320e-01 2.87051320e-01
      2.75881827e-01 1.82264969e-01 6.24565780e-02 3.90159227e-02
      6.83146194e-02 2.01532722e-01 2.87051320e-01 2.87051320e-01
      2.87051320e-01 2.87051320e-01 2.87051320e-01 1.62455663e-01
      1.02489896e-01 2.51098543e-01 2.31648967e-01 2.87051320e-01
      8.58625248e-02 5.14056869e-02 3.65456603e-02 3.41920294e-02
      3.57535295e-02 2.79376134e-02 7.12099224e-02 7.59143159e-02
      1.32712170e-01 3.11032198e-02 3.79115492e-02 5.32835461e-02
      6.23386614e-02 7.17740282e-02 4.21548113e-02 4.18613367e-02
      2.48685014e-02 4.37810682e-02 2.84067810e-01 2.84067810e-01
      2.84067810e-01 2.84067810e-01 2.84067810e-01 2.38229766e-01
      2.84067810e-01 2.84067810e-01 2.84067810e-01 7.63188675e-02
      1.27940550e-01 2.20970750e-01 1.75609872e-01 1.46365166e-01
      1.52113616e-01 2.05885351e-01 1.33367956e-01 1.57745108e-01
      3.49815525e-02 6.10658191e-02 7.19016492e-02 7.50577822e-02
      8.56118575e-02 5.21509536e-02 3.24173011e-02 1.87490936e-02
      5.51471412e-02 7.77339488e-02 2.46030122e-01 2.67054826e-01
      2.67054826e-01 1.04274005e-01 6.58836588e-02 2.47057825e-02
      2.01979615e-02 6.89748824e-02 1.90175712e-01 2.24670559e-01
      2.67054826e-01 1.67568341e-01 2.27018461e-01 9.40400958e-02
      6.68489262e-02 4.07068357e-02 8.58918726e-02 2.67054826e-01
      2.67054826e-01 2.67054826e-01 2.67054826e-01 2.67054826e-01
      1.81081057e-01 5.31729423e-02 1.15888372e-01 2.67054826e-01
      1.40395597e-01 2.55820990e-01 2.63822258e-01 1.93270072e-01
      5.72412014e-02 5.26645854e-02 4.96935621e-02 7.28038549e-02
      9.96863768e-02 2.63822258e-01 2.63822258e-01 2.19113976e-01
      1.00190707e-01 5.51399589e-02 4.05031145e-02 7.26946592e-02
      2.23918542e-01 2.63822258e-01 1.71142638e-01 9.09438878e-02
      2.15684816e-01 2.63822258e-01 1.28279582e-01 1.36010826e-01
      5.42987436e-02 8.09269696e-02 2.04928666e-01 2.63822258e-01
      1.64961591e-01 1.34433001e-01 8.89530331e-02 1.95231922e-02
      7.00970814e-02 5.30157723e-02 1.17886558e-01 2.63822258e-01
      3.15813273e-01 9.11371559e-02 5.97360730e-02 1.19256536e-02
      1.93073861e-02 1.95153821e-02 4.20804173e-02 1.77596048e-01
      3.15813273e-01 3.15813273e-01 9.89142060e-02 3.20455059e-02
      2.59441603e-02 2.58115903e-02 4.51229773e-02 6.58883154e-02
      3.15813273e-01 3.15813273e-01 2.01435387e-01 1.33435786e-01
      9.25081894e-02 3.04643344e-02 3.75054367e-02 6.08013496e-02
      6.16445467e-02 1.12734966e-01 2.80614883e-01 2.62157589e-01
      1.39063448e-01 1.15667477e-01 6.98360503e-02 1.47680670e-01
      9.20976177e-02 9.74598676e-02 1.39539823e-01 3.15813273e-01
      2.42316648e-01 2.06951886e-01 2.06947073e-01 2.37064570e-01
      4.22402024e-02 5.76282069e-02 7.46000782e-02 1.53780371e-01
      1.98355645e-01 2.42316648e-01 2.42316648e-01 2.42316648e-01
      2.42316648e-01 9.33657661e-02 4.72373143e-02 8.66940692e-02
      7.44086206e-02 1.32653341e-01 2.42316648e-01 1.44195288e-01
      1.40240878e-01 2.42316648e-01 1.21412300e-01 1.33397743e-01
      1.28697470e-01 1.53394178e-01 2.42316648e-01 1.52049676e-01
      1.33807883e-01 1.80223078e-01 2.42316648e-01 1.06720403e-01
      2.87008509e-02 2.11815182e-02 3.30796167e-02 1.07963569e-01
      2.45476753e-01 2.45476753e-01 2.45476753e-01 2.09009722e-01
      1.95375085e-01 1.02615148e-01 1.90585539e-01 1.92371860e-01
      2.41075128e-01 7.76564628e-02 1.79379046e-01 2.45476753e-01
      2.10614070e-01 2.02191472e-01 1.07364893e-01 8.85537863e-02
      6.56974614e-02 7.32891038e-02 1.20105378e-01 1.82734564e-01
      1.60611242e-01 1.18657321e-01 6.42384067e-02 2.24128701e-02
      2.54600514e-02 6.17442206e-02 9.71841812e-02 1.14740103e-01
      1.47561625e-01 2.45476753e-01 2.45476753e-01 2.45476753e-01
      1.61228940e-01 9.44203585e-02 8.64215866e-02 1.25907913e-01
      1.56394541e-01 1.61556497e-01 2.30048686e-01 1.18086256e-01
      9.82619524e-02 3.42350118e-02 2.07521264e-02 2.17029937e-02
      5.09080477e-02 2.30048686e-01 1.65136248e-01 1.81639642e-01
      1.18447661e-01 9.97247174e-02 7.38512576e-02 7.67093077e-02
      1.79600045e-01 2.30048686e-01 2.08647281e-01 1.12795144e-01
      2.30048686e-01 2.30048686e-01 2.30048686e-01 9.49088708e-02
      7.70998374e-02 7.68520087e-02 1.70332372e-01 2.30048686e-01
      1.66944444e-01 2.04706877e-01 2.16172621e-01 1.27934277e-01
      1.64608404e-01 2.20556572e-01 2.30048686e-01 2.30048686e-01
      2.34581590e-01 9.98550877e-02 4.95043024e-02 1.15023911e-01
      9.13392156e-02 1.43583789e-01 1.54667556e-01 2.34581590e-01
      2.34581590e-01 2.25839928e-01 9.62872207e-02 2.54500899e-02
      3.40206996e-02 2.30434779e-02 6.54059500e-02 8.51626843e-02
      2.01583892e-01 2.34581590e-01 2.30714634e-01 2.31972709e-01
      1.28146291e-01 1.47129834e-01 1.44476533e-01 2.23889127e-01
      2.34581590e-01 2.34581590e-01 2.34581590e-01 1.70694232e-01
      1.43589512e-01 5.32553568e-02 4.17471081e-02 8.51328447e-02
      1.01152711e-01 1.45484403e-01 2.34581590e-01 2.34581590e-01
      1.23421639e-01 6.81644455e-02 5.31367622e-02 3.25192735e-02
      4.65843603e-02 6.72675073e-02 1.19486488e-01 2.59634525e-01
      2.15913400e-01 2.50479788e-01 1.73892513e-01 1.57973617e-01
      1.12094246e-01 1.41020998e-01 1.25923708e-01 1.39732465e-01
      2.59634525e-01 2.59634525e-01 9.77765694e-02 3.67609598e-02
      3.30492854e-02 2.06205305e-02 3.24501060e-02 7.13057518e-02
      1.99649379e-01 2.59634525e-01 1.56095803e-01 2.16814816e-01
      1.32991061e-01 1.09219447e-01 1.03263982e-01 1.04524508e-01
      2.59634525e-01 2.59634525e-01 2.59634525e-01 2.59634525e-01
      2.81525254e-01 2.29856253e-01 1.40627280e-01 2.81525254e-01
      2.81525254e-01 2.81525254e-01 1.92213073e-01 2.56027132e-01
      2.81525254e-01 1.80499017e-01 9.81164649e-02 1.18689790e-01
      2.81525254e-01 2.23996043e-01 6.57837689e-02 4.16436121e-02
      7.32351169e-02 2.43586987e-01 4.61144745e-02 1.66142937e-02
      2.72316579e-02 2.82572731e-02 2.81525254e-01 2.44940013e-01
      5.27359620e-02 6.95772767e-02 5.47126345e-02 2.83207782e-02
      1.46547854e-02 2.61858553e-02 2.28269789e-02 7.70450085e-02
      4.87694927e-02 3.35462056e-02 4.19793874e-02 4.55904156e-02
      8.04013461e-02 6.43404797e-02 6.69957176e-02 1.02965437e-01
      1.48189962e-01 8.81877914e-02 7.51566887e-02 9.53534916e-02
      1.09035656e-01 2.49770314e-01 9.63651463e-02 1.79769546e-01
      2.93103218e-01 2.93103218e-01 2.93103218e-01 2.59415358e-01
      2.75700718e-01 2.93103218e-01 4.36464101e-02 1.76595785e-02
      1.53846405e-02 7.81596079e-03 1.93187073e-01 1.02897227e-01
      9.84157994e-02 6.69608936e-02 6.68160841e-02 1.41832367e-01
      5.07473908e-02 9.34433639e-02 1.45723552e-01 2.93103218e-01
      2.34286159e-01 1.27715871e-01 7.19953999e-02 2.00163871e-01
      2.11435691e-01 4.24748026e-02 7.09984377e-02 1.53010473e-01
      1.75949499e-01 9.07193720e-02 8.66995156e-02 9.98862013e-02
      2.86717266e-01 2.55466521e-01 1.11995071e-01 1.31150648e-01
      3.06788743e-01 2.43031800e-01 1.68691844e-01 2.68699646e-01
      3.06788743e-01 3.06788743e-01 5.33203930e-02 2.94644833e-02
      4.51748110e-02 6.91813529e-02 9.13696513e-02 4.75736707e-02
      2.75297668e-02 2.57155858e-02 6.55792728e-02 5.75425401e-02
      4.82630916e-02 1.05855137e-01 3.06788743e-01 3.06788743e-01
      4.98962253e-02 6.24697059e-02 5.97188137e-02 6.39176667e-02
      1.00564770e-01 1.36423394e-01 1.26860350e-01 2.99625933e-01
      2.15703949e-01 1.61649331e-01 2.36480564e-01 2.26861566e-01
      9.08604115e-02 1.02235660e-01 9.93257985e-02 5.79555295e-02
      1.28011957e-01 8.45189542e-02 1.03361823e-01 1.00940607e-01
      9.70377326e-02 9.95805785e-02 9.35272425e-02 8.84845480e-02
      1.34547025e-01 2.99625933e-01 2.99625933e-01 9.38012004e-02
      1.07812382e-01 7.61350840e-02 4.67285253e-02 2.45029390e-01
      1.55089796e-01 1.10702030e-01 2.77703315e-01 1.25095859e-01
      1.50159508e-01 1.72453135e-01 2.18121052e-01 2.34697104e-01
      8.35773721e-02 3.88840437e-02 3.03537045e-02 1.94821469e-02
      4.99669425e-02 5.93884215e-02 9.33371857e-02 1.65366188e-01
      1.01019211e-01 1.35833636e-01 1.13164611e-01 2.01495469e-01
      1.79933697e-01 2.24429473e-01 2.24429473e-01 2.24429473e-01
      2.24429473e-01 1.03693120e-01 1.58736855e-01 9.65577513e-02
      6.34795204e-02 8.04177523e-02 1.47665784e-01 1.59566790e-01
      1.41468704e-01 2.24429473e-01 2.24429473e-01 1.84887394e-01
      1.83544770e-01 2.24429473e-01 2.24429473e-01 2.24429473e-01
      1.98643282e-01 2.16802865e-01 2.24429473e-01 2.24429473e-01
      5.02843224e-02 3.95915247e-02 2.82018520e-02 8.83000940e-02
      2.83042639e-01 2.53587186e-01 1.61071643e-01 2.03840762e-01
      7.16482475e-02 2.79548969e-02 4.10956033e-02 2.65826527e-02
      4.03924361e-02 7.73014501e-02 5.41404411e-02 5.40267117e-02
      6.35946319e-02 4.30208221e-02 1.22783944e-01 7.48211071e-02
      5.84008992e-02 2.04261124e-01 2.83042639e-01 2.83042639e-01
      2.83042639e-01 2.83042639e-01 2.83042639e-01 9.04145986e-02
      6.36568293e-02 2.26324257e-02 8.49402547e-02 1.44027844e-01
      2.56847352e-01 2.83042639e-01 2.83042639e-01 1.07879326e-01
      9.64367464e-02 8.03008527e-02 1.65423956e-02 2.15214211e-02
      1.35251552e-01 1.58921733e-01 1.71063825e-01 8.87183025e-02
      7.00737834e-02 2.76278168e-01 1.83605880e-01 9.58054066e-02
      1.20099545e-01 2.76278168e-01 2.76278168e-01 1.22566722e-01
      5.54953814e-02 1.19943656e-01 1.42342210e-01 9.42391157e-02
      2.34820247e-02 9.63751078e-02 1.96904182e-01 2.76278168e-01
      2.76278168e-01 1.28941864e-01 6.73534647e-02 1.88414380e-01
      1.35528728e-01 9.17913914e-02 1.52016908e-01 2.76278168e-01
      2.76278168e-01 2.51363963e-01 1.34089544e-01 7.46238232e-02
      5.99926077e-02 9.41696763e-02 9.23527554e-02 1.00172333e-01
      1.01472810e-01 4.77686822e-02 9.79228411e-03 6.40399754e-03
      1.39252683e-02 4.94281389e-02 1.39857993e-01 2.65981525e-01
      3.29871565e-01 3.29871565e-01 2.98451819e-02 7.12788338e-03
      1.23313507e-02 1.27024576e-02 3.58708464e-02 9.25082415e-02
      1.36170015e-01 1.44302815e-01 2.26208180e-01 2.62101263e-01
      6.65606856e-02 1.80864576e-02 4.92029032e-03 3.52047160e-02
      1.61095455e-01 3.29871565e-01 3.29871565e-01 3.29871565e-01
      3.29871565e-01 6.73114285e-02 1.56146623e-02 6.57998305e-03
      5.77431545e-02 8.87680873e-02 1.42201722e-01 2.41297528e-01
      2.41297528e-01 4.35976125e-02 4.70102765e-02 6.29941374e-02
      4.23644818e-02 2.18932405e-01 1.37986124e-01 1.12260006e-01
      2.41297528e-01 1.58301979e-01 1.23785391e-01 1.72562212e-01
      2.37906337e-01 2.25652143e-01 3.76892947e-02 7.32918233e-02
      1.61386296e-01 2.41297528e-01 2.41297528e-01 2.14064628e-01
      1.17226079e-01 1.07190393e-01 4.84534204e-02 1.90465912e-01
      8.78508762e-02 6.26172051e-02 1.84714124e-01 2.07255423e-01
      1.60094544e-01 2.40431622e-01 2.41297528e-01 1.87113926e-01
      2.21340328e-01 1.74162626e-01 5.46236113e-02 1.36823758e-01
      1.44515380e-01 1.62059650e-01 1.45304114e-01 2.20502377e-01
      2.21340328e-01 2.21340328e-01 2.09296033e-01 7.85389245e-02
      1.30444020e-01 2.13547751e-01 1.67710945e-01 1.51221320e-01
      2.21340328e-01 2.21340328e-01 2.21340328e-01 2.03640342e-01
      5.58393896e-02 1.51066542e-01 1.36201680e-01 1.03723817e-01
      1.11511663e-01 1.16929628e-01 1.92044348e-01 2.21340328e-01
      2.21340328e-01 4.59560044e-02 1.10552654e-01 1.40086159e-01
      1.22118853e-01 1.21416569e-01 1.48045123e-01 1.67668641e-01
      9.93469656e-02 3.14931348e-02 3.61228660e-02 8.19294602e-02
      6.33360744e-02 2.17471913e-01 2.44033322e-01 2.58810043e-01
      2.58810043e-01 7.98942298e-02 2.87919864e-02 2.27374323e-02
      4.86881770e-02 6.12101592e-02 1.89675525e-01 2.29057997e-01
      1.37905881e-01 8.67840871e-02 2.13955700e-01 8.71103331e-02
      5.21926470e-02 6.91958219e-02 8.89027715e-02 1.71063989e-01
      2.58810043e-01 2.58810043e-01 2.58810043e-01 2.01842025e-01
      1.70109794e-01 2.49509007e-01 1.03613175e-01 8.93167108e-02
      1.29906654e-01 1.88607082e-01 2.05394059e-01 2.46168762e-01
      1.22976147e-01 4.13203277e-02 5.03222421e-02 5.02153523e-02
      5.84369674e-02 1.03184320e-01 1.37482777e-01 6.82437047e-02
      1.23757124e-01 8.75293165e-02 2.44585164e-02 7.00767860e-02
      4.39835489e-02 1.82166994e-01 1.21151425e-01 7.50623122e-02
      9.26587731e-02 9.15136412e-02 2.61193544e-01 2.68482238e-01
      2.68482238e-01 1.99974060e-01 8.01883712e-02 1.03818625e-01
      1.22810826e-01 1.25290498e-01 2.56963432e-01 2.68482238e-01
      1.95605099e-01 2.68482238e-01 1.79163188e-01 2.68482238e-01
      2.67802596e-01 6.49764538e-02 1.94903538e-01 2.64578044e-01
      3.68886963e-02 1.77064389e-02 4.22768481e-02 5.09185791e-02
      1.93229660e-01 2.67322451e-01 7.78427497e-02 4.41815443e-02
      4.20947969e-02 3.10470592e-02 3.15469392e-02 1.16544105e-01
      1.38537899e-01 2.67322451e-01 2.67322451e-01 1.00345798e-01
      3.44191901e-02 3.60382833e-02 2.67322451e-01 9.20262337e-02
      1.13557704e-01 1.14261635e-01 2.67322451e-01 2.21549571e-01
      5.80662638e-02 1.04405820e-01 2.67322451e-01 2.67322451e-01
      1.07356057e-01 1.04419790e-01 1.74862310e-01 2.67322451e-01
      2.67322451e-01 1.31150603e-01 1.19459175e-01 2.67322451e-01
      6.60354123e-02 9.30944532e-02 1.51763007e-01 1.70169815e-01
      2.52946138e-01 2.52946138e-01 1.75641537e-01 1.20977603e-01
      3.24606188e-02 1.54437825e-01 1.31169632e-01 1.03999831e-01
      1.26913533e-01 2.52946138e-01 2.52279043e-01 2.52946138e-01
      2.24264890e-01 8.21023658e-02 1.46996334e-01 8.65717605e-02
      1.25297025e-01 1.79459602e-01 2.52946138e-01 2.52946138e-01
      1.54006839e-01 1.44310102e-01 8.95428285e-02 7.60889500e-02
      1.07121617e-01 9.73210037e-02 4.80252393e-02 1.65956125e-01
      1.57258376e-01 2.01475352e-01 2.37339944e-01 7.45657086e-02
      1.96856856e-01 1.53799787e-01 8.77934471e-02 1.42213032e-01
      2.27863878e-01 1.55163646e-01 1.87616676e-01 1.60534725e-01
      1.35993063e-01 1.75746247e-01 1.69206664e-01 7.25851506e-02
      1.21345893e-01 1.29723400e-01 1.45277157e-01 2.42762730e-01
      1.98823795e-01 1.72866389e-01 8.78103673e-02 1.02976911e-01
      6.43973947e-02 3.64536345e-02 1.59273624e-01 1.65469781e-01
      2.42762730e-01 2.42762730e-01 1.41355932e-01 1.23199247e-01
      1.11368418e-01 7.46491998e-02 6.90521747e-02 1.55817658e-01
      2.42762730e-01 2.42762730e-01 2.42762730e-01 2.29323030e-01</_>
    <_>
      7.00193346e-02 3.84466872e-02 6.32696003e-02 1.22929566e-01
      1.34367809e-01 2.29206115e-01 2.29206115e-01 2.29206115e-01
      1.72620013e-01 2.29206115e-01 1.67336404e-01 1.40370384e-01
      8.02522004e-02 1.79499626e-01 2.29206115e-01 2.29206115e-01
      2.29206115e-01 1.82978705e-01 2.17135936e-01 1.57163829e-01
      6.40024990e-02 1.03436343e-01 1.12263121e-01 2.14360714e-01
      2.29206115e-01 2.00411588e-01 1.60592809e-01 2.29206115e-01
      1.43604144e-01 8.00001025e-02 5.96216768e-02 1.08502872e-01
      1.48658901e-01 1.48687020e-01 1.33168936e-01 1.27483174e-01
      2.64813513e-01 2.64813513e-01 2.64813513e-01 1.12891905e-01
      1.19531572e-01 1.25558764e-01 1.08571552e-01 1.04616001e-01
      1.68394536e-01 2.64813513e-01 2.64813513e-01 2.62690246e-01
      2.01446891e-01 2.02737123e-01 1.15148254e-01 6.85698241e-02
      1.03748068e-01 2.64813513e-01 2.64813513e-01 1.59177840e-01
      8.47198442e-02 4.79093008e-02 4.70581017e-02 7.56525993e-02
      6.21943623e-02 7.85937235e-02 1.36105940e-01 2.53937483e-01
      1.61699846e-01 1.41219079e-01 6.52717650e-02 6.87035844e-02
      1.11995719e-01 9.22214910e-02 7.07187802e-02 1.27469629e-01
      2.76820779e-01 2.76820779e-01 1.42859355e-01 1.13727130e-01
      1.71672389e-01 8.47105682e-02 6.64404258e-02 1.08213395e-01
      2.76820779e-01 2.76820779e-01 2.76820779e-01 1.24269411e-01
      1.10210955e-01 2.27998763e-01 6.16108552e-02 5.14565408e-02
      1.37435749e-01 1.84570506e-01 2.76820779e-01 2.06225857e-01
      1.40412271e-01 5.58606945e-02 7.47000128e-02 7.88805038e-02
      9.24597085e-02 5.34602366e-02 1.44854650e-01 2.76820779e-01
      1.49496213e-01 9.21892300e-02 6.15127310e-02 6.18390478e-02
      4.25472222e-02 5.72788939e-02 7.74979368e-02 2.76820779e-01
      1.59413546e-01 7.90083110e-02 6.18331246e-02 9.42478999e-02
      1.78160101e-01 5.47873713e-02 7.09470659e-02 2.42712080e-01
      2.22251832e-01 9.45765674e-02 1.03048868e-01 6.75055310e-02
      4.59140688e-02 6.71793446e-02 6.14069887e-02 7.97525719e-02
      2.61284500e-01 2.67330021e-01 2.67330021e-01 6.89713880e-02
      8.09429362e-02 7.78076053e-02 3.68168205e-02 3.47797386e-02
      1.11885384e-01 2.51738101e-01 2.67330021e-01 2.67330021e-01
      1.75651491e-01 2.06093192e-01 1.72878921e-01 1.55527055e-01
      6.30247220e-02 1.99392512e-01 2.67330021e-01 2.67330021e-01
      5.10673784e-02 4.17069383e-02 4.57946658e-02 4.25542258e-02
      4.76317666e-02 2.98360847e-02 3.78811359e-02 2.70623654e-01
      2.70623654e-01 1.34487122e-01 4.71441559e-02 7.61040747e-02
      1.04443304e-01 1.20905489e-01 7.50498101e-02 6.50715902e-02
      2.70623654e-01 2.70623654e-01 2.70623654e-01 1.07089818e-01
      1.06457777e-01 8.58772472e-02 9.69208926e-02 4.52083386e-02
      8.52299184e-02 2.17887193e-01 2.70623654e-01 2.70623654e-01
      2.45376930e-01 2.56500721e-01 1.94118336e-01 2.10419923e-01
      1.40139401e-01 4.42378521e-02 1.05568320e-01 2.70623654e-01
      2.36061677e-01 2.36061677e-01 1.07592054e-01 1.07900456e-01
      1.18507601e-01 1.90789640e-01 1.85444564e-01 2.11335987e-01
      2.32678801e-01 1.24579713e-01 1.24589071e-01 9.31666940e-02
      9.63928476e-02 1.44652963e-01 2.36061677e-01 1.50845960e-01
      7.99039602e-02 4.65971790e-02 2.36061677e-01 7.79807642e-02
      6.15722798e-02 2.36061677e-01 2.36061677e-01 2.29441494e-01
      2.36061677e-01 1.99465677e-01 2.36061677e-01 2.58663911e-02
      4.16061468e-02 8.63477290e-02 1.24428228e-01 1.94255769e-01
      2.36061677e-01 1.44600123e-01 3.66845950e-02 1.94781348e-02
      5.34026287e-02 4.39610220e-02 5.53491451e-02 5.45166470e-02
      5.13541102e-02 1.11515895e-01 6.97494298e-02 6.30739182e-02
      5.76866269e-02 1.77537620e-01 3.19346309e-01 3.19346309e-01
      2.15954691e-01 5.39129153e-02 1.10013120e-01 1.10709108e-01
      9.22033787e-02 8.47178772e-02 1.20111536e-02 3.94548960e-02
      1.34136707e-01 2.36023024e-01 1.74576119e-01 1.59092516e-01
      4.55192290e-02 2.61880904e-02 1.64014827e-02 7.13441223e-02
      3.19346309e-01 3.19346309e-01 3.19346309e-01 3.18759918e-01
      2.44578466e-01 7.99137503e-02 9.11956057e-02 1.10905588e-01
      2.63171226e-01 2.63171226e-01 2.63171226e-01 1.08653545e-01
      4.98418100e-02 5.51453978e-02 6.30910993e-02 4.69316132e-02
      9.75798741e-02 2.63171226e-01 1.97056144e-01 9.91611779e-02
      5.35068251e-02 5.54532334e-02 5.47515266e-02 6.35304153e-02
      7.94738904e-02 2.63171226e-01 1.58369869e-01 2.63171226e-01
      2.63171226e-01 2.63171226e-01 1.27567157e-01 1.37699157e-01
      7.27317110e-02 1.02466792e-01 1.60105139e-01 2.63171226e-01
      1.55820608e-01 1.13299049e-01 1.03523433e-01 1.07086718e-01
      1.25503838e-01 1.10383704e-01 1.21720389e-01 2.63171226e-01
      2.59265274e-01 4.57822829e-02 2.93537583e-02 2.96462364e-02
      2.29709148e-02 3.80600244e-02 1.35504290e-01 2.13330507e-01
      2.59265274e-01 1.66550472e-01 6.28361702e-02 9.13276002e-02
      1.11526765e-01 1.65938854e-01 1.29623368e-01 2.59265274e-01
      2.59265274e-01 2.59265274e-01 2.59265274e-01 7.18098804e-02
      3.42174284e-02 6.43232167e-02 6.23533130e-02 1.20747112e-01
      1.83025315e-01 1.62970796e-01 2.59265274e-01 1.30303845e-01
      3.37156020e-02 4.68710139e-02 8.63986835e-02 1.75737858e-01
      2.59265274e-01 2.59265274e-01 2.38422588e-01 1.46482378e-01
      2.00704604e-01 8.45825523e-02 7.40879551e-02 8.32972005e-02
      1.43782884e-01 9.96473208e-02 1.84315726e-01 1.76744193e-01
      2.38000467e-01 2.38000467e-01 2.38000467e-01 2.17235968e-01
      2.02502757e-01 9.62228552e-02 6.41145185e-02 4.69245426e-02
      9.67382416e-02 2.38000467e-01 9.84710529e-02 8.20017308e-02
      1.36092231e-01 1.02577455e-01 1.64926469e-01 2.38000467e-01
      2.38000467e-01 1.46140024e-01 9.00901854e-02 1.87380612e-01
      2.38000467e-01 2.38000467e-01 2.38000467e-01 1.05754323e-01
      1.38132527e-01 1.15077920e-01 8.83045346e-02 1.74534947e-01
      1.42264500e-01 9.36807767e-02 9.71710011e-02 2.81551450e-01
      2.81551450e-01 1.91266358e-01 1.97867066e-01 1.03073046e-01
      1.75806299e-01 4.05157804e-02 4.15626243e-02 7.11405203e-02
      1.19657978e-01 1.58566698e-01 1.35926664e-01 7.97304958e-02
      6.12687729e-02 3.40229534e-02 2.81551450e-01 1.81127310e-01
      1.24602526e-01 1.83790743e-01 2.17710570e-01 9.33137834e-02
      1.19324960e-01 1.77967057e-01 2.81551450e-01 2.81551450e-01
      1.35112837e-01 9.78579894e-02 1.38739124e-01 1.25243396e-01
      1.15418918e-01 7.98739195e-02 1.46983951e-01 2.81551450e-01
      1.14942975e-02 1.54469246e-02 5.37486896e-02 1.28773674e-01
      1.86357781e-01 1.83350831e-01 3.31266373e-02 1.60767548e-02
      1.13319578e-02 3.41573991e-02 7.97576383e-02 1.89133778e-01
      3.00403416e-01 3.00403416e-01 3.00403416e-01 1.08165205e-01
      1.03499159e-01 1.07600905e-01 5.55390865e-02 2.21447628e-02
      4.48953062e-02 1.29420012e-01 1.65654093e-01 2.23113373e-01
      7.98936039e-02 4.85945605e-02 4.69008237e-02 1.06906459e-01
      1.06919803e-01 1.26573458e-01 3.00403416e-01 3.00403416e-01
      3.00403416e-01 2.83268988e-01 2.10566342e-01 1.20897017e-01
      5.17348833e-02 1.05838187e-01 1.53319418e-01 2.22566083e-01
      1.86190307e-01 2.22566083e-01 8.17315429e-02 1.42507017e-01
      1.73690543e-01 1.24946266e-01 9.32687521e-02 1.26948297e-01
      1.53280690e-01 1.28610015e-01 1.77504450e-01 1.57013759e-01
      1.14927404e-01 1.85647577e-01 1.31642580e-01 1.36510924e-01
      1.16689861e-01 1.86552241e-01 2.22566083e-01 2.22566083e-01
      2.06899866e-01 2.22566083e-01 1.95148200e-01 1.22901246e-01
      8.58216435e-02 1.21952422e-01 1.76437318e-01 1.86864853e-01
      2.22566083e-01 2.22566083e-01 2.11608499e-01 1.55170843e-01
      1.44258514e-01 4.35478762e-02 6.60599694e-02 1.92497253e-01
      1.31725132e-01 1.25617996e-01 1.25396416e-01 6.81920350e-02
      1.09442554e-01 1.37626693e-01 6.46798611e-02 1.05325714e-01
      2.52275914e-01 2.37906769e-01 2.52275914e-01 1.62979215e-01
      1.18753269e-01 4.88217995e-02 1.24814548e-01 5.68620302e-02
      1.47927091e-01 2.52275914e-01 2.52275914e-01 2.26376712e-01
      1.97194189e-01 1.05183601e-01 1.46016255e-01 1.24690063e-01
      1.15764126e-01 2.52275914e-01 2.52275914e-01 2.52275914e-01
      2.21667618e-01 1.28680155e-01 1.06339179e-01 1.39063790e-01
      8.95949453e-02 8.76995176e-02 1.15418047e-01 1.66694582e-01
      2.54033715e-01 2.54033715e-01 1.54792637e-01 1.54768884e-01
      5.28157167e-02 9.35444832e-02 1.16202533e-01 1.63437143e-01
      1.64052203e-01 2.00507328e-01 1.44721180e-01 1.06803775e-01
      8.39750990e-02 1.11960940e-01 1.02010265e-01 1.26544818e-01
      2.54033715e-01 2.54033715e-01 2.54033715e-01 2.24744618e-01
      1.00282229e-01 1.49627700e-01 1.37636200e-01 1.37220994e-01
      1.25339866e-01 1.54116645e-01 2.03425154e-01 2.54033715e-01
      1.55301005e-01 1.04270086e-01 1.40722573e-01 2.27873817e-01
      2.99818367e-01 3.57355624e-02 2.32966077e-02 6.84301974e-03
      1.91308651e-02 1.30399736e-02 4.07972895e-02 1.48291409e-01
      3.15775365e-01 2.37341508e-01 4.41573039e-02 3.68258171e-02
      4.85037714e-02 2.99033429e-02 5.56941666e-02 1.49168879e-01
      2.36244112e-01 3.15775365e-01 2.35964417e-01 4.45377827e-02
      3.30481157e-02 1.10057388e-02 1.25973597e-02 9.60492622e-03
      4.74102981e-02 1.78649023e-01 3.15775365e-01 3.15775365e-01
      5.42306900e-02 1.47095239e-02 1.89384762e-02 2.11188551e-02
      5.36601543e-02 1.96040481e-01 3.15775365e-01 3.15775365e-01
      1.22488707e-01 1.56466030e-02 3.72851081e-02 9.92160514e-02
      6.28875867e-02 1.05048873e-01 1.21666923e-01 1.13865875e-01
      1.75425887e-01 1.75529480e-01 1.03673831e-01 1.02620922e-01
